tree
version=v4
num_class=1
num_tree_per_iteration=1
label_index=0
max_feature_idx=317
objective=regression
feature_names=Column_0 Column_1 Column_2 Column_3 Column_4 Column_5 Column_6 Column_7 Column_8 Column_9 Column_10 Column_11 Column_12 Column_13 Column_14 Column_15 Column_16 Column_17 Column_18 Column_19 Column_20 Column_21 Column_22 Column_23 Column_24 Column_25 Column_26 Column_27 Column_28 Column_29 Column_30 Column_31 Column_32 Column_33 Column_34 Column_35 Column_36 Column_37 Column_38 Column_39 Column_40 Column_41 Column_42 Column_43 Column_44 Column_45 Column_46 Column_47 Column_48 Column_49 Column_50 Column_51 Column_52 Column_53 Column_54 Column_55 Column_56 Column_57 Column_58 Column_59 Column_60 Column_61 Column_62 Column_63 Column_64 Column_65 Column_66 Column_67 Column_68 Column_69 Column_70 Column_71 Column_72 Column_73 Column_74 Column_75 Column_76 Column_77 Column_78 Column_79 Column_80 Column_81 Column_82 Column_83 Column_84 Column_85 Column_86 Column_87 Column_88 Column_89 Column_90 Column_91 Column_92 Column_93 Column_94 Column_95 Column_96 Column_97 Column_98 Column_99 Column_100 Column_101 Column_102 Column_103 Column_104 Column_105 Column_106 Column_107 Column_108 Column_109 Column_110 Column_111 Column_112 Column_113 Column_114 Column_115 Column_116 Column_117 Column_118 Column_119 Column_120 Column_121 Column_122 Column_123 Column_124 Column_125 Column_126 Column_127 Column_128 Column_129 Column_130 Column_131 Column_132 Column_133 Column_134 Column_135 Column_136 Column_137 Column_138 Column_139 Column_140 Column_141 Column_142 Column_143 Column_144 Column_145 Column_146 Column_147 Column_148 Column_149 Column_150 Column_151 Column_152 Column_153 Column_154 Column_155 Column_156 Column_157 Column_158 Column_159 Column_160 Column_161 Column_162 Column_163 Column_164 Column_165 Column_166 Column_167 Column_168 Column_169 Column_170 Column_171 Column_172 Column_173 Column_174 Column_175 Column_176 Column_177 Column_178 Column_179 Column_180 Column_181 Column_182 Column_183 Column_184 Column_185 Column_186 Column_187 Column_188 Column_189 Column_190 Column_191 Column_192 Column_193 Column_194 Column_195 Column_196 Column_197 Column_198 Column_199 Column_200 Column_201 Column_202 Column_203 Column_204 Column_205 Column_206 Column_207 Column_208 Column_209 Column_210 Column_211 Column_212 Column_213 Column_214 Column_215 Column_216 Column_217 Column_218 Column_219 Column_220 Column_221 Column_222 Column_223 Column_224 Column_225 Column_226 Column_227 Column_228 Column_229 Column_230 Column_231 Column_232 Column_233 Column_234 Column_235 Column_236 Column_237 Column_238 Column_239 Column_240 Column_241 Column_242 Column_243 Column_244 Column_245 Column_246 Column_247 Column_248 Column_249 Column_250 Column_251 Column_252 Column_253 Column_254 Column_255 Column_256 Column_257 Column_258 Column_259 Column_260 Column_261 Column_262 Column_263 Column_264 Column_265 Column_266 Column_267 Column_268 Column_269 Column_270 Column_271 Column_272 Column_273 Column_274 Column_275 Column_276 Column_277 Column_278 Column_279 Column_280 Column_281 Column_282 Column_283 Column_284 Column_285 Column_286 Column_287 Column_288 Column_289 Column_290 Column_291 Column_292 Column_293 Column_294 Column_295 Column_296 Column_297 Column_298 Column_299 Column_300 Column_301 Column_302 Column_303 Column_304 Column_305 Column_306 Column_307 Column_308 Column_309 Column_310 Column_311 Column_312 Column_313 Column_314 Column_315 Column_316 Column_317
feature_infos=[-1.8923151305639514:1.7014918481016403] [-1.6113275921444146:2.7688588996160681] [-1.6111054780856415:4.4625639594168467] none [0:1] [0:1] [0:1] [0:1] [0:1] [0:1] [0:1] [0:1] [0:1] [0:1] [0:1] [0:1] [0:1] [0:1] [0:1] [0:1] [0:1] none [0:1] [0:1] [0:1] [0:1] [0:1] [0:1] [0:1] [0:1] [0:1] [0:1] [0:1] [0:1] [0:1] [0:1] [0:1] [0:1] [0:1] [0:1] [0:1] [0:1] [0:1] [0:1] [0:1] [0:1] [0:1] [0:1] [0:1] [0:1] [0:1] [0:1] [0:1] [0:1] [0:1] none [0:1] [0:1] [0:1] [0:1] [0:1] [0:1] [0:1] [0:1] none none none none [0:1] [0:1] [0:1] [0:1] [0:1] none [0:1] none [0:1] [0:1] [0:1] [0:1] none [0:1] none [0:1] none none none none [0:1] [0:1] [0:1] [0:1] [0:1] [0:1] none none none none none none none none [0:1] none none none none none [0:1] none [0:1] [0:1] [0:1] none none none [0:1] [0:1] none [0:1] [0:1] none [0:1] [0:1] none [0:1] [0:1] none none [0:1] [0:1] [0:1] none none none [0:1] [0:1] none none [0:1] [0:1] [0:1] [0:1] [0:1] none [0:1] [0:1] none none none [0:1] none none none none [0:1] [0:1] [0:1] [0:1] [0:1] none none [0:1] none [0:1] none none none none none none [0:1] none [0:1] [0:1] [0:1] none [0:1] [0:1] [0:1] [0:1] [0:1] [0:1] [0:1] [0:1] [0:1] none [0:1] [0:1] [0:1] none none none none none none none none none none none [0:1] none [0:1] [0:1] [0:1] [0:1] none none [0:1] none none [0:1] none [0:1] none none none none [0:1] [0:1] [0:1] [0:1] [0:1] none none none none none none [0:1] [0:1] none [0:1] [0:1] [0:1] [0:1] [0:1] [0:1] [0:1] none none [0:1] [0:1] [0:1] [0:1] none [0:1] none none [0:1] none none none none none [0:1] none none [0:1] [0:1] [0:1] [0:1] none [0:1] [0:1] [0:1] [0:1] [0:1] [0:1] [0:1] none none none none [0:1] none none none [0:1] none none none none none none [0:1] none [0:1] none none none [0:1] none none none none none none [0:1] none none none [0:1] [0:1] none none none [0:1] none none [0:1] none [0:1] none none [0:1] none
tree_sizes=2994 2858 2847 2875 2859 2879 2853 2872 2887 2888 2881 2883 2885 2894 2898 2902 2908 2894 2922 2909 2915 2925 2930 2930 2920 2908 2932 2930 2929 2947 2939 2925 2951 2934 2941 2922 2941 2914 2920 2906 2960 2952 2945 2929 2938 2931 2957 2938 2913 2908 2943 2919 2934 2975 2921 2894 2926 2925 2930 2901 2924 2920 2947 2888 2938 2896 2907 2945 2884 2909 2910 2928 2958 2906 2887 2905 2929 2901 2926 2914 2952 2933 2918 2882 2875 2858 2914 2897 2882 2877 2898 2935 2890 2884 2911 2871 2812 2894 2883 2876

Tree=0
num_leaves=31
num_cat=0
split_feature=2 268 2 2 31 0 2 0 0 0 0 0 0 219 0 19 31 12 26 15 2 214 0 37 28 25 0 54 8 2
split_gain=5.6067e+16 3.41007e+16 7.69242e+15 5.66537e+15 4.19233e+15 4.04794e+15 2.07e+15 1.44686e+15 1.4162e+15 1.13468e+15 9.44654e+14 8.94364e+14 8.61514e+14 6.13245e+14 6.0718e+14 5.76539e+14 4.77058e+14 3.8468e+14 3.83101e+14 3.40455e+14 3.30916e+14 2.69159e+14 2.55578e+14 2.50646e+14 2.92873e+14 2.46692e+14 2.44706e+14 2.35159e+14 2.80806e+14 2.28805e+14
threshold=1.0000000180025095e-35 1.0000000180025095e-35 1.1115739249327155 -0.56392109230935039 1.0000000180025095e-35 0.23129808410208011 2.2634767492866357 1.0000000180025095e-35 0.23129808410208011 1.211427260101787 0.88471753476855142 -1.075540817230862 1.0000000180025095e-35 1.0000000180025095e-35 -0.74883109189762664 1.0000000180025095e-35 1.0000000180025095e-35 1.0000000180025095e-35 1.0000000180025095e-35 1.0000000180025095e-35 -0.98279484661986682 1.0000000180025095e-35 1.211427260101787 1.0000000180025095e-35 1.0000000180025095e-35 1.0000000180025095e-35 0.88471753476855142 1.0000000180025095e-35 1.0000000180025095e-35 -0.98279484661986682
decision_type=2 2 2 2 2 2 2 2 2 2 2 2 2 2 2 2 2 2 2 2 2 2 2 2 2 2 2 2 2 2
left_child=3 4 5 7 8 11 26 20 -2 15 -6 -3 19 23 -8 18 -16 -14 27 -5 -1 -11 -12 24 -10 -13 -4 28 -7 -9
right_child=1 2 6 12 10 9 14 29 13 21 22 25 17 -15 16 -17 -18 -19 -20 -21 -22 -23 -24 -25 -26 -27 -28 -29 -30 -31
leaf_value=3974393.9291012529 4654479.6853823382 4204242.9669533446 4530812.0419576075 4189864.0462393896 5274685.4704246875 4456880.9106484056 4578486.8206315935 4079892.4861893011 5105141.32770235 4569244.1483766325 5582118.9166123327 4336607.5400064653 4258593.5581719605 5518917.8637170829 4800100.668027427 4220434.4727393417 5097278.1760982936 4483655.5680274274 4511513.534448172 4079550.4512562673 4043926.5456735566 4822845.5386796016 5888486.8430274278 4820440.1763607608 4845060.8430274269 4224656.4972726023 4641088.9975790577 4312248.8177378764 4351517.8322750498 4135505.3763408549
leaf_weight=1490 98 894 444 2275 73 948 48 1517 323 464 53 1800 1498 29 94 128 127 80 539 319 1266 46 56 45 50 221 368 200 345 1444
leaf_count=1490 98 894 444 2275 73 948 48 1517 323 464 53 1800 1498 29 94 128 127 80 539 319 1266 46 56 45 50 221 368 200 345 1444
internal_value=4.27887e+06 4.48719e+06 4.41626e+06 4.12314e+06 5.13753e+06 4.369e+06 4.66044e+06 4.05848e+06 4.99875e+06 4.45796e+06 5.55307e+06 4.28753e+06 4.21174e+06 5.07423e+06 4.90086e+06 4.42628e+06 4.97088e+06 4.27e+06 4.43925e+06 4.1763e+06 4.00633e+06 4.59212e+06 5.73952e+06 5.04338e+06 5.07028e+06 4.32437e+06 4.58079e+06 4.41316e+06 4.42877e+06 4.10701e+06
internal_weight=0 7393 6666 9889 727 5585 1081 5717 545 2670 182 2915 4172 447 269 2160 221 1578 2032 2594 2756 510 109 418 373 2021 812 1493 1293 2961
internal_count=17282 7393 6666 9889 727 5585 1081 5717 545 2670 182 2915 4172 447 269 2160 221 1578 2032 2594 2756 510 109 418 373 2021 812 1493 1293 2961
is_linear=0
shrinkage=1


Tree=1
num_leaves=31
num_cat=0
split_feature=2 268 2 2 31 0 2 0 0 0 0 0 0 219 0 19 31 2 25 12 0 15 220 214 0 0 0 26 2 0
split_gain=4.54143e+16 2.76216e+16 6.23086e+15 4.58895e+15 3.39579e+15 3.30538e+15 1.6767e+15 1.21924e+15 1.14833e+15 1.0624e+15 7.6517e+14 6.97826e+14 5.43007e+14 5.30879e+14 4.91816e+14 4.20016e+14 3.86417e+14 3.57158e+14 3.29156e+14 3.1159e+14 3.05978e+14 2.75769e+14 2.6011e+14 2.18019e+14 2.08684e+14 2.07018e+14 2.05483e+14 1.98588e+14 1.77308e+14 1.70499e+14
threshold=1.0000000180025095e-35 1.0000000180025095e-35 1.1115739249327155 -0.56392109230935039 1.0000000180025095e-35 1.0000000180025095e-35 2.2634767492866357 0.23129808410208011 -0.42212136656439109 1.211427260101787 0.88471753476855142 1.0000000180025095e-35 -1.075540817230862 1.0000000180025095e-35 -0.74883109189762664 1.0000000180025095e-35 1.0000000180025095e-35 -0.98279484661986682 1.0000000180025095e-35 1.0000000180025095e-35 0.88471753476855142 1.0000000180025095e-35 1.0000000180025095e-35 1.0000000180025095e-35 1.211427260101787 1.211427260101787 0.5580078094353158 1.0000000180025095e-35 0.69270017062219891 -0.74883109189762664
decision_type=2 2 2 2 2 2 2 2 2 2 2 2 2 2 2 2 2 2 2 2 2 2 2 2 2 2 2 2 2 2
left_child=3 4 5 7 8 12 24 17 -2 15 -6 21 -3 22 -8 18 -16 -1 20 -13 28 -5 -10 -11 -4 -12 -18 -22 -7 -19
right_child=1 2 6 11 10 9 14 -9 13 23 25 19 -14 -15 16 -17 26 29 -20 -21 27 -23 -24 -25 -26 -27 -28 -29 -30 -31
leaf_value=-267092.3060841625 253435.10721153847 -67168.147076648136 245055.71962460695 -80109.175590502389 896230.10684931511 88656.966898253857 269651.32005208335 -142918.12096565435 650304.0523074572 261332.90832435346 1172920.1735849057 -18252.615417928657 30232.511634229159 1116039.220689655 469103.77056183509 -52595.793838500977 632364.30000000005 -241867.89132492116 28361.090437459767 184303.19125000003 177682.40064704296 -179391.4166731975 911628.73571428563 489574.14565217396 368093.37102272734 1448651.3035714286 891840.82156862749 321352.88474576274 156174.72084891095 -174647.0152293455
leaf_weight=1809 65 894 636 2275 73 787 48 2342 409 464 53 1498 1591 29 94 128 76 634 267 80 521 319 42 46 176 56 51 118 769 932
leaf_count=1809 65 894 636 2275 73 787 48 2342 409 464 53 1498 1591 29 94 128 76 634 267 80 521 319 42 46 176 56 51 118 769 932
internal_value=0 187484 123651 -140163 772786 81116.2 343407 -198356 647892 149994 1.14678e+06 -60420 -4808.21 701308 559787 124017 622802 -236825 133199 -7983.63 145952 -92318.5 674640 281919 271724 1.31458e+06 736564 204213 122025 -201862
internal_weight=0 7393 6666 9889 727 5585 1081 5717 545 3100 182 4172 2485 480 269 2590 221 3375 2462 1578 2195 2594 451 510 812 109 127 639 1556 1566
internal_count=17282 7393 6666 9889 727 5585 1081 5717 545 3100 182 4172 2485 480 269 2590 221 3375 2462 1578 2195 2594 451 510 812 109 127 639 1556 1566
is_linear=0
shrinkage=0.1


Tree=2
num_leaves=31
num_cat=0
split_feature=2 268 2 2 31 0 2 0 0 0 0 0 0 219 0 19 31 12 2 54 25 2 37 28 1 214 0 16 2 0
split_gain=3.67856e+16 2.23735e+16 5.047e+15 3.71705e+15 2.75059e+15 2.70123e+15 1.35813e+15 9.87585e+14 9.62131e+14 7.36088e+14 6.19788e+14 6.11804e+14 5.77065e+14 3.99952e+14 3.98371e+14 3.81713e+14 3.12998e+14 2.97998e+14 2.89298e+14 2.78637e+14 2.59606e+14 2.10351e+14 1.97745e+14 2.30389e+14 1.83036e+14 1.76595e+14 1.72226e+14 1.67836e+14 2.44998e+14 1.67685e+14
threshold=1.0000000180025095e-35 1.0000000180025095e-35 1.1115739249327155 -0.56392109230935039 1.0000000180025095e-35 0.23129808410208011 2.2634767492866357 0.23129808410208011 0.23129808410208011 1.211427260101787 0.88471753476855142 -0.74883109189762664 -1.075540817230862 1.0000000180025095e-35 -0.74883109189762664 1.0000000180025095e-35 1.0000000180025095e-35 1.0000000180025095e-35 -0.98279484661986682 1.0000000180025095e-35 1.0000000180025095e-35 0.69270017062219891 1.0000000180025095e-35 1.0000000180025095e-35 -1.181282674773388 1.0000000180025095e-35 0.23129808410208011 1.0000000180025095e-35 -0.24976577657646315 1.211427260101787
decision_type=2 2 2 2 2 2 2 2 2 2 2 2 2 2 2 2 2 2 2 2 2 2 2 2 2 2 2 2 2 2
left_child=3 4 5 7 8 12 24 18 -2 15 -6 -5 -3 22 -8 19 -16 27 -1 20 -7 -14 23 -10 -4 -11 -18 28 -13 -12
right_child=1 2 6 11 10 9 14 -9 13 25 29 17 21 -15 16 -17 26 -19 -20 -21 -22 -23 -24 -25 -26 -27 -28 -29 -30 -31
leaf_value=-240383.05997443339 299337.42809311225 -60451.333320225116 338567.19712121214 -102807.49070263824 806607.05684931518 156561.2428184076 242686.17994791665 -128626.30750456173 675211.91041021678 235199.6252487709 1055628.1735849057 14344.777744464487 -4613.2248660508867 1004435.3206896551 422193.37772606383 -47336.213806152344 549174.20538461534 165872.875 -181675.44237707535 18634.19636404419 38883.333446344339 61641.871389081403 422378.92055555555 444537.5 220575.41896251935 440616.73586956528 782143.32419354841 -411.63718714083598 -78658.199977140219 1303786.2000000002
leaf_weight=1809 98 894 165 1605 73 1620 48 2342 323 464 53 392 781 29 94 128 65 80 1566 200 212 1240 45 50 647 46 62 1074 1021 56
leaf_count=1809 98 894 165 1605 73 1620 48 2342 323 464 53 392 781 29 94 128 65 80 1566 200 212 1240 45 50 647 46 62 1074 1021 56
internal_value=0 168736 111286 -126147 695507 73004.6 309066 -178520 583103 145671 1.0321e+06 -54378 6445.8 645315 503808 120158 560522 -24097.8 -213143 130708 142943 36038.1 620400 644290 244552 253727 662907 -30208.7 -52856.9 1.18312e+06
internal_weight=0 7393 6666 9889 727 5585 1081 5717 545 2670 182 4172 2915 447 269 2160 221 2567 3375 2032 1832 2021 418 373 812 510 127 2487 1413 109
internal_count=17282 7393 6666 9889 727 5585 1081 5717 545 2670 182 4172 2915 447 269 2160 221 2567 3375 2032 1832 2021 418 373 812 510 127 2487 1413 109
is_linear=0
shrinkage=0.1


Tree=3
num_leaves=31
num_cat=0
split_feature=2 268 2 2 0 31 2 0 0 0 19 0 0 0 219 0 31 2 12 26 269 220 2 4 15 0 25 29 0 9
split_gain=2.97963e+16 1.81225e+16 4.08807e+15 3.01081e+15 2.23928e+15 2.22797e+15 1.10009e+15 8.20478e+14 7.87396e+14 6.16862e+14 5.49863e+14 5.02028e+14 4.96854e+14 4.28219e+14 3.46312e+14 3.2268e+14 2.53528e+14 2.48558e+14 2.25956e+14 2.23415e+14 2.05512e+14 1.95503e+14 1.76843e+14 1.71334e+14 1.64182e+14 1.60485e+14 1.5219e+14 1.50057e+14 1.41071e+14 1.36058e+14
threshold=1.0000000180025095e-35 1.0000000180025095e-35 1.1115739249327155 -0.56392109230935039 0.5580078094353158 1.0000000180025095e-35 2.2634767492866357 1.0000000180025095e-35 -0.42212136656439109 -0.74883109189762664 1.0000000180025095e-35 0.88471753476855142 -0.42212136656439109 1.211427260101787 1.0000000180025095e-35 -0.74883109189762664 1.0000000180025095e-35 0.69270017062219891 1.0000000180025095e-35 1.0000000180025095e-35 1.0000000180025095e-35 1.0000000180025095e-35 -0.98279484661986682 1.0000000180025095e-35 1.0000000180025095e-35 0.88471753476855142 1.0000000180025095e-35 1.0000000180025095e-35 1.0000000180025095e-35 1.0000000180025095e-35
decision_type=2 2 2 2 2 2 2 2 2 2 2 2 2 2 2 2 2 2 2 2 2 2 2 2 2 2 2 2 2 2
left_child=3 5 4 7 9 8 25 22 -2 -3 13 -7 24 19 21 -8 -17 -11 -14 23 27 29 -1 -6 -5 -4 -15 -9 -18 -10
right_child=1 2 6 12 10 11 15 20 14 17 -12 -13 18 26 -16 16 28 -19 -20 -21 -22 -23 -24 -25 -26 -27 -28 -29 -30 -31
leaf_value=-223284.74204278525 198157.84975961538 -41478.402335364983 179622.83711993243 -74233.642048337089 103474.4209427911 725946.36438356165 218417.56953125002 -151398.81687294858 512307.95209277852 6317.5587383025286 -46297.179662915209 1064810.0032110091 -21976.745325495649 253161.5552879051 903991.81379310344 379974.04208776599 479820.0912280702 76088.24777943005 149285.5859375 200302.55290858727 -79601.390365727755 752944.64047619049 -172454.33104512244 300181.02826086961 -162686.46784401263 268928.6789232337 39641.775960286461 -81170.455884792376 691722.05071428569 762669.05000000005
leaf_weight=1490 65 1252 444 1774 1184 73 48 1828 386 872 143 109 2080 459 29 94 57 1232 80 361 768 42 1266 46 238 368 36 365 70 23
leaf_count=1490 65 1252 444 1774 1184 73 48 1828 386 872 143 109 2080 459 29 94 57 1232 80 361 768 42 1266 46 238 368 36 365 70 23
internal_value=0 151862 100157 -113532 65704.2 625956 278159 -160668 524793 14099.7 143400 928892 -48940.2 156404 569024 453427 504470 47171.9 -15633.7 131132 -124120 547485 -199935 110831 -84696.7 220096 237633 -139710 596616 526387
internal_weight=0 7393 6666 9889 5585 727 1081 5717 545 3356 2229 182 4172 2086 480 269 221 2104 2160 1591 2961 451 2756 1230 2012 812 495 2193 127 409
internal_count=17282 7393 6666 9889 5585 727 1081 5717 545 3356 2229 182 4172 2086 480 269 221 2104 2160 1591 2961 451 2756 1230 2012 812 495 2193 127 409
is_linear=0
shrinkage=0.1


Tree=4
num_leaves=31
num_cat=0
split_feature=2 268 2 2 0 31 2 0 0 0 0 0 0 219 26 0 31 243 12 40 2 0 0 37 28 35 13 2 26 16
split_gain=2.4135e+16 1.46793e+16 3.31133e+15 2.43876e+15 1.83897e+15 1.80466e+15 8.92964e+14 6.6876e+14 6.50368e+14 5.49946e+14 4.31346e+14 4.16768e+14 2.86563e+14 2.61044e+14 2.5908e+14 2.38088e+14 2.48561e+14 2.05861e+14 1.94337e+14 1.84941e+14 1.99775e+14 1.73393e+14 1.63378e+14 1.53424e+14 1.7789e+14 1.52911e+14 1.51101e+14 1.44377e+14 1.4423e+14 1.36899e+14
threshold=1.0000000180025095e-35 1.0000000180025095e-35 1.1115739249327155 -0.56392109230935039 1.0000000180025095e-35 1.0000000180025095e-35 1.7398845563984902 0.23129808410208011 0.23129808410208011 1.211427260101787 1.211427260101787 -0.74883109189762664 -1.075540817230862 1.0000000180025095e-35 1.0000000180025095e-35 -0.74883109189762664 1.0000000180025095e-35 1.0000000180025095e-35 1.0000000180025095e-35 1.0000000180025095e-35 0.69270017062219891 0.88471753476855142 0.5580078094353158 1.0000000180025095e-35 1.0000000180025095e-35 1.0000000180025095e-35 1.0000000180025095e-35 2.8917873807524104 1.0000000180025095e-35 1.0000000180025095e-35
decision_type=2 2 2 2 2 2 2 2 2 2 2 2 2 2 2 2 2 2 2 2 2 2 2 2 2 2 2 2 2 2
left_child=3 5 4 7 12 8 -4 17 27 14 22 -5 -3 23 19 -8 -17 -1 29 20 25 -16 -7 24 -10 -6 -9 -2 -11 -13
right_child=1 2 6 11 9 10 15 26 13 28 -12 18 -14 -15 21 16 -18 -19 -20 -21 -22 -23 -24 -25 -26 -27 -28 -29 -30 -31
leaf_value=-185566.62543580329 104545.31038707387 -50258.359121574387 195181.71349090189 -84017.696267766762 43149.014630982674 566403.09999999998 196575.80729166669 -98644.48126716986 551548.16851780179 183172.6710714736 1066926.5973214286 -44443.833107818587 20498.684570527334 813592.62068965519 121015.79915482954 334471.69590517244 536954.7929133859 -124195.12013028425 134357.02515624999 270162.92771739134 139280.80553036279 253531.21022245765 811029.33372093027 328910.2333333334 348852.97450000001 167725.55571933964 -235236.59166666667 348572.68677662039 332507.55855263164 2921.9684173640817
leaf_weight=2689 44 894 790 1605 1398 40 48 2258 323 434 56 1413 1591 29 605 116 127 686 80 46 317 118 86 45 50 106 84 54 76 1074
leaf_count=2689 44 894 790 1605 1398 40 48 2258 323 434 56 1413 1591 29 605 116 127 686 80 46 317 118 86 45 50 106 84 54 76 1074
internal_value=0 136676 90141.5 -102179 59133.7 563361 250343 -144601 472313 110510 836003 -44046.2 -4956.77 523463 91819.3 400095 440296 -173092 -19054.3 72137.5 67135.2 142643 733370 503334 524377 51929 -103544 239009 205426 -23989.1
internal_weight=0 7393 6666 9889 5585 727 1081 5717 545 3100 182 4172 2485 447 2590 291 243 3375 2567 1867 1821 723 126 418 373 1504 2342 98 510 2487
internal_count=17282 7393 6666 9889 5585 727 1081 5717 545 3100 182 4172 2485 447 2590 291 243 3375 2567 1867 1821 723 126 418 373 1504 2342 98 510 2487
is_linear=0
shrinkage=0.1


Tree=5
num_leaves=31
num_cat=0
split_feature=2 268 2 2 0 31 2 0 0 19 0 92 0 214 15 4 0 7 269 219 2 2 2 0 54 25 31 2 37 28
split_gain=1.95494e+16 1.18902e+16 2.68218e+15 1.97539e+15 1.51743e+15 1.46177e+15 7.24435e+14 5.7029e+14 5.39161e+14 4.14143e+14 4.05619e+14 3.56173e+14 3.47752e+14 3.03076e+14 2.78297e+14 2.67733e+14 2.12294e+14 2.11265e+14 2.08903e+14 1.9922e+14 1.86679e+14 1.80732e+14 1.79986e+14 1.75242e+14 1.74054e+14 1.69731e+14 1.6492e+14 1.50086e+14 1.37722e+14 1.65002e+14
threshold=1.0000000180025095e-35 1.0000000180025095e-35 1.1115739249327155 -0.56392109230935039 0.5580078094353158 1.0000000180025095e-35 2.2634767492866357 -0.42212136656439109 0.5580078094353158 1.0000000180025095e-35 -0.74883109189762664 1.0000000180025095e-35 0.88471753476855142 1.0000000180025095e-35 1.0000000180025095e-35 1.0000000180025095e-35 -0.74883109189762664 1.0000000180025095e-35 1.0000000180025095e-35 1.0000000180025095e-35 0.69270017062219891 -0.98279484661986682 -1.4435559763614347 -1.075540817230862 1.0000000180025095e-35 1.0000000180025095e-35 1.0000000180025095e-35 2.8917873807524104 1.0000000180025095e-35 1.0000000180025095e-35
decision_type=2 2 2 2 2 2 2 2 2 2 2 2 2 2 2 2 2 2 2 2 2 2 2 2 2 2 2 2 2 2
left_child=3 5 4 7 10 8 -4 -1 27 13 -3 -7 14 15 23 17 -8 24 21 28 -12 22 -9 -5 25 -6 -18 -2 29 -10
right_child=1 2 6 12 9 11 16 18 19 -11 20 -13 -14 -15 -16 -17 26 -19 -20 -21 -22 -23 -24 -25 -26 -27 -28 -29 -30 -31
leaf_value=-172302.75639902678 94090.77947887074 -34327.970641270847 178191.21978525247 -77554.450851899659 129054.22336804257 906888.22012195131 176918.2265625 -107394.50956597221 510372.40020586998 -47451.144200721159 2152.5634716348914 625724.46150000009 30802.263420491538 334550.04710144928 -128043.30593675417 275344.5579439252 308529.47746010637 343148.59230769234 -60941.533106952142 732233.32068965526 62617.992298027144 -93069.369839908482 -177076.90215355041 -25969.039975267544 9258.2598102592983 32054.896347179882 483259.33218503941 323524.02036072535 296019.20833333337 313967.67499999999
leaf_weight=2055 44 1252 812 937 1503 82 48 720 296 143 872 100 600 69 419 107 94 39 790 29 1232 1388 764 2216 163 205 127 81 45 50
leaf_count=2055 44 1252 812 937 1503 82 48 720 296 143 872 100 600 69 419 107 94 39 790 29 1232 1388 764 2216 163 205 127 81 45 50
internal_value=0 123008 81127.3 -91960.9 53220.4 507025 225309 -130141 425082 117179 10740.1 752403 -39641.6 128465 -51474.3 121415 367538 112791 -106481 479343 37558.2 -119008 -143269 -41299.1 107990 117412 408940 242764 460587 481990
internal_weight=0 7393 6666 9889 5585 727 1081 5717 545 2229 3356 182 4172 2086 3572 2017 269 1910 3662 420 2104 2872 1484 3153 1871 1708 221 125 391 346
internal_count=17282 7393 6666 9889 5585 727 1081 5717 545 2229 3356 182 4172 2086 3572 2017 269 1910 3662 420 2104 2872 1484 3153 1871 1708 221 125 391 346
is_linear=0
shrinkage=0.1


Tree=6
num_leaves=31
num_cat=0
split_feature=2 268 2 2 0 31 2 0 0 0 0 269 26 40 90 0 7 269 2 219 2 2 2 2 0 15 0 2 0 220
split_gain=1.58469e+16 9.60697e+15 2.16238e+15 1.6227e+15 1.2611e+15 1.18404e+15 5.92522e+14 4.61935e+14 4.3672e+14 4.26699e+14 3.05662e+14 3.01845e+14 2.3147e+14 2.02458e+14 1.94591e+14 1.9164e+14 1.73588e+14 1.69211e+14 1.66154e+14 1.61368e+14 1.49468e+14 1.46393e+14 1.45788e+14 1.38716e+14 1.36037e+14 1.30157e+14 1.24383e+14 1.2157e+14 1.16626e+14 1.15881e+14
threshold=0.15863613387629036 1.0000000180025095e-35 1.1115739249327155 -0.56392109230935039 1.0000000180025095e-35 1.0000000180025095e-35 1.7398845563984902 -0.42212136656439109 0.5580078094353158 0.88471753476855142 1.211427260101787 1.0000000180025095e-35 1.0000000180025095e-35 1.0000000180025095e-35 1.0000000180025095e-35 -1.075540817230862 1.0000000180025095e-35 1.0000000180025095e-35 0.69270017062219891 1.0000000180025095e-35 0.69270017062219891 -0.98279484661986682 -1.4435559763614347 -0.24976577657646315 1.211427260101787 1.0000000180025095e-35 0.5580078094353158 2.8917873807524104 -1.075540817230862 1.0000000180025095e-35
decision_type=2 2 2 2 2 2 2 2 2 2 2 2 2 2 2 2 2 2 2 2 2 2 2 2 2 2 2 2 2 2
left_child=3 5 4 7 15 8 24 -1 27 18 26 25 13 16 28 -3 20 21 -6 29 -11 22 -9 -13 -4 -5 -7 -2 -8 -10
right_child=1 2 6 11 9 10 14 17 19 12 -12 23 -14 -15 -16 -17 -18 -19 -20 -21 -22 -23 -24 -25 -26 -27 -28 -29 -30 -31
leaf_value=-155072.48139902679 84681.701996959338 -41799.726187782377 135789.83183974228 -48660.449418994074 32955.428505373238 445081.62000000005 149400.82645348838 -96655.059809027778 395642.66206124646 75472.190370748183 871553.411607143 52438.064899359808 235809.06770296392 247810.10549065421 597513.48541666672 16063.460989228352 321607.55285714287 -54847.379654216522 94580.320463619559 659010.02068965521 176777.4767361111 -83762.432905934809 -159369.20727820272 -17529.207008500536 235922.71788793104 -117382.85407118055 658526.70668604656 291171.6206018519 329203.10351518908 571458.13988095243
leaf_weight=2055 44 894 616 2203 1015 40 43 720 349 763 56 360 194 107 24 1591 35 790 769 29 180 1388 764 1331 174 315 86 81 224 42
leaf_count=2055 44 894 616 2203 1015 40 43 720 349 763 56 360 194 107 24 1591 35 790 769 29 180 1388 764 1331 174 315 86 81 224 42
internal_value=0 111235 73389.2 -82434.4 48178.5 456322 202778 -117127 382574 91121.8 677162 -35312 135203 117214 324763 -4753.32 102926 -95833.3 59519.1 431409 94809.4 -107107 -128942 -2633.75 157844 -57257.6 590766 218487 300246 414528
internal_weight=0 7356 6629 9926 5548 727 1081 5717 545 3063 182 4209 1279 1085 291 2485 978 3662 1784 420 943 2872 1484 1691 790 2518 126 125 267 391
internal_count=17282 7356 6629 9926 5548 727 1081 5717 545 3063 182 4209 1279 1085 291 2485 978 3662 1784 420 943 2872 1484 1691 790 2518 126 125 267 391
is_linear=0
shrinkage=0.1


Tree=7
num_leaves=31
num_cat=0
split_feature=2 268 2 2 0 31 2 0 0 19 0 0 0 1 54 25 90 2 2 2 37 81 30 47 12 0 214 2 16 2
split_gain=1.2836e+16 7.78164e+15 1.75152e+15 1.31439e+15 1.04142e+15 9.5907e+14 4.80584e+14 3.74167e+14 3.53744e+14 3.21476e+14 2.76355e+14 2.68481e+14 2.67983e+14 2.53817e+14 1.52432e+14 1.54015e+14 1.51046e+14 1.40007e+14 1.88647e+14 1.34966e+14 1.31317e+14 1.57198e+14 1.24609e+14 1.65311e+14 1.1997e+14 1.04768e+14 9.85945e+13 9.84715e+13 9.41005e+13 1.15375e+14
threshold=0.15863613387629036 1.0000000180025095e-35 1.1115739249327155 -0.56392109230935039 0.5580078094353158 1.0000000180025095e-35 2.2634767492866357 -0.42212136656439109 0.5580078094353158 1.0000000180025095e-35 -0.42212136656439109 -0.42212136656439109 1.5381369854350229 -0.78509698091668267 1.0000000180025095e-35 1.0000000180025095e-35 1.0000000180025095e-35 -0.98279484661986682 -1.4435559763614347 0.69270017062219891 1.0000000180025095e-35 1.0000000180025095e-35 1.0000000180025095e-35 1.0000000180025095e-35 1.0000000180025095e-35 -0.74883109189762664 1.0000000180025095e-35 2.8917873807524104 1.0000000180025095e-35 -0.24976577657646315
decision_type=2 2 2 2 2 2 2 2 2 2 2 2 2 2 2 2 2 2 2 2 2 2 2 2 2 2 2 2 2 2
left_child=3 5 4 7 10 8 22 -1 27 12 -3 -5 14 -7 15 26 25 18 -9 -12 21 -10 23 -4 28 -8 -6 -2 29 -13
right_child=1 2 6 11 9 13 16 17 20 -11 19 24 -14 -15 -16 -17 -18 -19 -20 -21 -22 -23 -24 -25 -26 -27 -28 -29 -30 -31
leaf_value=-139565.23143058093 76213.531436434656 -17969.2051158543 222859.51845817119 -58172.557947869427 111032.26207823293 714031.21176470595 142413.38489583333 -78972.064472903498 430631.78401135514 -47993.616229376094 6274.0277729975423 15770.349497076559 224335.57855512641 476100.15437500004 3224.1871545862268 21552.243736615641 537762.1333333333 -66264.916654807239 -143560.39498774509 66025.961101325214 226853.00833333336 225330.24851190476 38994.082114603065 122572.10127841882 112597.29098213196 307170.09510628175 259713.56413043477 262054.45645254632 13611.670350285722 -49546.782185160206
leaf_weight=2055 44 1823 257 2012 1466 102 48 1106 333 143 677 391 178 80 162 197 24 1791 765 856 45 42 99 456 80 197 46 81 849 877
leaf_count=2055 44 1823 257 2012 1466 102 48 1106 333 143 677 391 178 80 162 197 24 1791 765 856 45 42 99 456 80 197 46 81 849 877
internal_value=0 100111 66050.3 -74190.9 43360.6 410690 182500 -105414 344316 96969.4 8345.61 -31780.8 107086 609446 95931.7 104720 298344 -86249.9 -105380 39638.4 388268 407638 144123 158721 -7611.39 274891 115556 196638 -12154 -29405.6
internal_weight=0 7356 6629 9926 5548 727 1081 5717 545 2192 3356 4209 2049 182 1871 1709 269 3662 1871 1533 420 375 812 713 2197 245 1512 125 2117 1268
internal_count=17282 7356 6629 9926 5548 727 1081 5717 545 2192 3356 4209 2049 182 1871 1709 269 3662 1871 1533 420 375 812 713 2197 245 1512 125 2117 1268
is_linear=0
shrinkage=0.1


Tree=8
num_leaves=31
num_cat=0
split_feature=2 268 2 2 0 31 2 0 0 0 0 0 26 2 40 7 269 0 219 90 2 16 1 26 35 29 0 0 220 2
split_gain=1.03984e+16 6.31717e+15 1.42424e+15 1.0476e+15 8.31577e+14 7.76847e+14 3.89273e+14 3.59973e+14 3.03075e+14 2.86532e+14 2.25782e+14 2.1887e+14 1.71091e+14 1.66065e+14 1.57849e+14 1.30428e+14 1.27085e+14 1.26664e+14 1.25358e+14 1.22348e+14 1.14665e+14 1.13553e+14 1.13404e+14 1.08999e+14 1.11057e+14 1.08072e+14 8.96325e+13 8.95584e+13 8.79126e+13 8.6448e+13
threshold=1.0000000180025095e-35 1.0000000180025095e-35 1.1115739249327155 -0.56392109230935039 0.88471753476855142 1.0000000180025095e-35 2.2634767492866357 -0.42212136656439109 -0.42212136656439109 0.5580078094353158 -1.075540817230862 1.211427260101787 1.0000000180025095e-35 0.69270017062219891 1.0000000180025095e-35 1.0000000180025095e-35 1.0000000180025095e-35 1.211427260101787 1.0000000180025095e-35 1.0000000180025095e-35 0.3785448548893115 1.0000000180025095e-35 -1.2242592438808444 1.0000000180025095e-35 1.0000000180025095e-35 1.0000000180025095e-35 -1.4022505425640979 0.5580078094353158 1.0000000180025095e-35 -0.24976577657646315
decision_type=2 2 2 2 2 2 2 2 2 2 2 2 2 2 2 2 2 2 2 2 2 2 2 2 2 2 2 2 2 2
left_child=3 5 4 8 7 9 22 26 -1 -2 -5 27 14 23 15 20 25 21 28 -8 -6 29 -4 24 -9 -10 -3 -7 -11 -12
right_child=1 2 6 10 12 11 19 13 16 18 17 -13 -14 -15 -16 -17 -18 -19 -20 -21 -22 -23 -24 -25 -26 -27 -28 -29 -30 -31
leaf_value=-125608.70755702555 176974.60661875003 -47829.818809885663 208868.20513619087 -68061.786963069651 43514.207832013104 351773.78937499999 247402.10902425961 2574.1956506184897 -96204.241924041416 318113.42053187685 10178.726487433276 712994.91428571427 195204.94488563144 69521.980191098235 208960.92359813084 270897.91928571434 -42105.485210486309 52374.041112132356 550045.82068965526 483985.93333333335 112472.47561588243 317.7345700577992 112067.58359205868 152574.9299890351 118614.92640449438 -44678.019400030636 -641.19705141805184 532890.82470930228 471249.14047619049 -51283.136215301543
leaf_weight=2055 125 600 148 1091 538 40 245 1125 2381 349 281 56 194 1180 107 35 790 255 29 24 437 1312 664 57 89 491 1223 86 42 1233
leaf_count=2055 125 600 148 1091 538 40 245 1125 2381 349 281 56 194 1180 107 35 790 255 29 24 437 1312 664 57 89 491 1223 86 42 1233
internal_value=0 89712.4 59185.3 -67068.8 38849.5 369621 164250 17478.6 -94872.9 309885 -28968.1 548502 108521 42507.3 93465.9 81230.2 -77624.9 -15124.8 349441 268510 74421.7 -21215.5 129711 17426.8 11081.3 -87395.3 -16172.3 475393 334563 -39875.7
internal_weight=0 7393 6666 9889 5585 727 1081 4274 5717 545 4172 182 1311 2451 1117 1010 3662 3081 420 269 975 2826 812 1271 1214 2872 1823 126 391 1514
internal_count=17282 7393 6666 9889 5585 727 1081 4274 5717 545 4172 182 1311 2451 1117 1010 3662 3081 420 269 975 2826 812 1271 1214 2872 1823 126 391 1514
is_linear=0
shrinkage=0.1


Tree=9
num_leaves=31
num_cat=0
split_feature=2 268 0 2 31 31 2 0 0 0 0 269 1 19 25 2 219 54 33 15 25 25 220 9 12 0 0 6 30 135
split_gain=8.42432e+15 5.10502e+15 1.15726e+15 8.61726e+14 6.29246e+14 5.67394e+14 4.58044e+14 2.92368e+14 2.65496e+14 2.48531e+14 2.1393e+14 1.95134e+14 1.86203e+14 1.82653e+14 1.44366e+14 1.35498e+14 1.12946e+14 1.00654e+14 9.93432e+13 9.71782e+13 8.63164e+13 8.32927e+13 8.15272e+13 8.60893e+13 8.09356e+13 7.83602e+13 7.56397e+13 7.54235e+13 7.55033e+13 8.05198e+13
threshold=0.15863613387629036 1.0000000180025095e-35 0.5580078094353158 -0.56392109230935039 1.0000000180025095e-35 1.0000000180025095e-35 2.577632065019523 1.211427260101787 0.5580078094353158 -0.42212136656439109 -0.74883109189762664 1.0000000180025095e-35 -1.3205923161598465 1.0000000180025095e-35 1.0000000180025095e-35 -0.98279484661986682 1.0000000180025095e-35 1.0000000180025095e-35 1.0000000180025095e-35 1.0000000180025095e-35 1.0000000180025095e-35 1.0000000180025095e-35 1.0000000180025095e-35 1.0000000180025095e-35 1.0000000180025095e-35 -0.74883109189762664 0.5580078094353158 1.0000000180025095e-35 1.0000000180025095e-35 1.0000000180025095e-35
decision_type=2 2 2 2 2 2 2 2 2 2 2 2 2 2 2 2 2 2 2 2 2 2 2 2 2 2 2 2 2 2
left_child=3 4 6 8 9 7 10 13 15 -2 -3 19 -6 17 -12 -1 22 20 21 -5 27 -9 23 -11 -13 -8 -14 28 29 -4
right_child=1 2 5 11 12 -7 25 18 -10 16 14 24 26 -15 -16 -17 -18 -19 -20 -21 -22 -23 -24 -25 -26 -27 -28 -29 -30 -31
leaf_value=-118944.66945111168 95387.761730018028 -24247.278534403551 112561.77228397719 -35981.195162972181 657997.53399999999 430260.12352941179 103431.83492431641 151954.98523668185 -55526.646957793346 266622.08230246115 35818.269761777352 -4365.5544880957577 316596.41375000007 -39686.693206787109 -47617.087594485594 -80919.613536424964 495041.22327586211 2304.4888968941214 354926.41847826092 -95362.510588107645 20839.325280256104 -4405.3186604817711 424124.22619047621 465771.28478260874 98684.624414062506 266225.26818181819 481313.23940217396 9319.2007527669266 7371.6828254423954 38473.232248430308
leaf_weight=1979 65 1252 1466 2203 50 51 48 635 1958 386 2028 1611 40 128 231 1780 29 143 23 315 169 36 42 23 80 77 92 96 83 163
leaf_count=1979 65 1252 1466 2203 50 51 48 635 1958 386 2028 1611 40 128 231 1780 29 143 23 315 169 36 42 23 80 77 92 96 83 163
internal_value=0 81103 53514.9 -60104.1 332659 99567 15606.8 93834.4 -85385.6 278896 8909.8 -25764.8 493651 76318.8 27286.4 -100939 303746 83322.9 150571 -43409.8 89183.1 143566 291446 277821 509.676 203713 431399 95571.5 100408 105148
internal_weight=0 7356 6629 9926 727 2993 3636 2942 5717 545 3511 4209 182 2248 2259 3759 480 2120 694 2518 1977 671 451 409 1691 125 132 1808 1712 1629
internal_count=17282 7356 6629 9926 727 2993 3636 2942 5717 545 3511 4209 182 2248 2259 3759 480 2120 694 2518 1977 671 451 409 1691 125 132 1808 1712 1629
is_linear=0
shrinkage=0.1


Tree=10
num_leaves=31
num_cat=0
split_feature=2 268 2 2 0 31 2 0 0 0 0 92 19 2 2 2 0 219 0 30 0 26 1 26 35 31 0 269 220 9
split_gain=6.8237e+15 4.13506e+15 9.71993e+14 6.97998e+14 5.7111e+14 5.09689e+14 2.62057e+14 2.39982e+14 2.30873e+14 2.02464e+14 1.75634e+14 1.61822e+14 1.33036e+14 1.21343e+14 1.41777e+14 1.17609e+14 1.12432e+14 9.54e+13 8.76913e+13 8.74014e+13 1.12074e+14 8.35514e+13 8.33865e+13 7.78833e+13 7.48209e+13 7.39002e+13 9.9621e+13 7.23804e+13 6.9846e+13 7.24259e+13
threshold=0.15863613387629036 1.0000000180025095e-35 1.1115739249327155 -0.56392109230935039 0.88471753476855142 1.0000000180025095e-35 1.7398845563984902 -0.42212136656439109 -0.74883109189762664 -0.74883109189762664 -0.74883109189762664 1.0000000180025095e-35 1.0000000180025095e-35 -0.98279484661986682 -1.4435559763614347 0.69270017062219891 1.5381369854350229 1.0000000180025095e-35 -1.4022505425640979 1.0000000180025095e-35 0.88471753476855142 1.0000000180025095e-35 -1.1980726733823179 1.0000000180025095e-35 1.0000000180025095e-35 1.0000000180025095e-35 1.0000000180025095e-35 1.0000000180025095e-35 1.0000000180025095e-35 1.0000000180025095e-35
decision_type=2 2 2 2 2 2 2 2 2 2 2 2 2 2 2 2 2 2 2 2 2 2 2 2 2 2 2 2 2 2
left_child=3 5 4 8 7 9 19 27 -1 -2 -5 -7 16 14 -10 21 23 28 -8 20 -4 24 -12 -6 -9 -20 -27 -3 29 -11
right_child=1 2 6 10 12 11 18 15 13 17 22 -13 -14 -15 -16 -17 -18 -19 25 -21 -22 -23 -24 -25 -26 26 -28 -29 -30 -31
leaf_value=-111035.8086541532 50260.565973165765 -72353.022767857154 82446.832405931127 -49207.712887535221 73386.068062942286 548416.33414634154 57058.365215473787 407.48430347102033 -56487.122214282688 236772.1246527778 40742.355260579941 358899.56325000001 -47294.198109549907 -47745.662412857324 -107582.38933219982 56880.75974350622 170868.40633668366 445537.12068965519 175591.45209792565 17154.219710286459 163732.16246864549 131312.12809758773 -13837.175103083973 150680.60880310458 95669.712640449448 201945.83771114866 368360.60000000003 -6987.7968151564119 381711.79047619051 419194.18233695655
leaf_weight=1468 46 189 392 1605 881 82 31 1120 1107 405 319 100 67 2076 1066 1180 178 29 116 99 299 57 2285 153 89 74 70 1634 42 23
leaf_count=1468 46 189 392 1605 881 82 31 1120 1107 405 319 100 67 2076 1066 1180 178 29 116 99 299 57 2285 153 89 74 70 1634 42 23
internal_value=0 72992.7 48163.4 -54093.7 31260.9 299393 134912 13699.3 -76847.1 251007 -23188.3 444286 89877.3 -65035.1 -81552.7 34168.1 97460.3 269512 216037 105030 117620 12998.2 -7150.97 84823.3 7420.17 234992 282842 -13764.6 258651 246575
internal_weight=0 7356 6629 9926 5548 727 1081 4269 5717 545 4209 182 1279 4249 2173 2446 1212 499 291 790 691 1266 2604 1034 1209 260 144 1823 470 428
internal_count=17282 7356 6629 9926 5548 727 1081 4269 5717 545 4209 182 1279 4249 2173 2446 1212 499 291 790 691 1266 2604 1034 1209 260 144 1823 470 428
is_linear=0
shrinkage=0.1


Tree=11
num_leaves=31
num_cat=0
split_feature=2 268 1 269 31 2 2 2 0 0 0 1 182 20 0 37 81 16 33 25 19 12 16 1 25 0 0 25 25 54
split_gain=5.5272e+15 3.3494e+15 8.02193e+14 5.72488e+14 4.12848e+14 3.86707e+14 3.09476e+14 2.28686e+14 1.75265e+14 1.68199e+14 1.67732e+14 1.36883e+14 1.34552e+14 1.09903e+14 8.53458e+13 8.43873e+13 9.96607e+13 8.35057e+13 8.22975e+13 7.78055e+13 7.65599e+13 7.5456e+13 8.02893e+13 6.40505e+13 5.99598e+13 5.81746e+13 5.70492e+13 5.63664e+13 5.62249e+13 5.42499e+13
threshold=0.15863613387629036 1.0000000180025095e-35 -0.39722737458500773 1.0000000180025095e-35 1.0000000180025095e-35 1.7398845563984902 -0.98279484661986682 1.7398845563984902 -0.42212136656439109 1.211427260101787 0.23129808410208011 -1.3205923161598465 1.0000000180025095e-35 1.0000000180025095e-35 -1.075540817230862 1.0000000180025095e-35 1.0000000180025095e-35 1.0000000180025095e-35 1.0000000180025095e-35 1.0000000180025095e-35 1.0000000180025095e-35 1.0000000180025095e-35 1.0000000180025095e-35 -0.59205448787214399 1.0000000180025095e-35 -1.4022505425640979 0.23129808410208011 1.0000000180025095e-35 1.0000000180025095e-35 1.0000000180025095e-35
decision_type=2 2 2 2 2 2 2 2 2 2 2 2 2 2 2 2 2 2 2 2 2 2 2 2 2 2 2 2 2 2
left_child=3 4 5 6 10 9 13 8 24 20 -2 -6 14 -1 -8 16 23 -7 27 -10 28 22 -5 -12 25 -4 -13 -11 29 -3
right_child=1 2 7 21 11 17 12 -9 19 18 15 26 -14 -15 -16 -17 -18 -19 -20 -21 -22 -23 -24 -25 -26 -27 -28 -29 -30 -31
leaf_value=-102835.70031085527 107424.48137755104 74617.064966742459 -34988.329607900945 -22984.553649650697 540767.4425 173555.8359375 -79506.997189456961 144873.22180175781 36109.789017662632 118852.57190099834 308861.41593276517 225261.86208333331 -6726.2472120494513 -56910.64472384227 -46153.755642797922 122016.94624999999 120646.46688988095 319027.67332089553 304321.51304347831 -31743.421360607452 -29939.034796006945 88426.042080078128 16024.668997543609 213477.51691487632 -70513.794232536762 5685.1002130857041 382135.85759803926 -13496.322041590072 9210.0039260137655 4926.7727522786463
leaf_weight=1900 98 1615 530 1622 50 96 1018 128 1755 601 264 30 692 718 3114 45 42 67 23 187 90 80 782 96 170 1045 102 34 168 120
leaf_count=1900 98 1615 530 1622 50 96 1018 128 1755 601 264 30 692 718 3114 45 42 67 23 187 90 80 782 96 170 1045 102 34 168 120
internal_value=0 65693.4 43347.1 -48684.3 269454 83851.3 -62559.1 13470.6 8908.71 74659.2 225906 399858 -47536.4 -90240.5 -54371 251882 266419 233351 118497 29576 60185.9 -7115.77 -10295.2 283426 -14091.8 -8001.83 346483 111766 64448.3 69797
internal_weight=0 7356 6629 9926 727 2814 7442 3815 3687 2651 545 182 4824 2618 4132 447 402 163 658 1942 1993 2484 2404 360 1745 1575 132 635 1903 1735
internal_count=17282 7356 6629 9926 727 2814 7442 3815 3687 2651 545 182 4824 2618 4132 447 402 163 658 1942 1993 2484 2404 360 1745 1575 132 635 1903 1735
is_linear=0
shrinkage=0.1


Tree=12
num_leaves=31
num_cat=0
split_feature=2 268 2 2 0 31 2 0 1 0 0 188 0 26 1 15 25 269 219 30 10 29 0 31 214 1 51 40 2 16
split_gain=4.47888e+15 2.71881e+15 6.67825e+14 4.69197e+14 3.82712e+14 3.34407e+14 1.64089e+14 1.61004e+14 1.45173e+14 1.43918e+14 1.3485e+14 1.23544e+14 9.29935e+13 9.04319e+13 9.04068e+13 9.14155e+13 8.62571e+13 8.10601e+13 7.20963e+13 7.09478e+13 9.49442e+13 6.79136e+13 6.74369e+13 6.76636e+13 6.53715e+13 6.46079e+13 5.87287e+13 5.77096e+13 6.18867e+13 5.47255e+13
threshold=1.0000000180025095e-35 1.0000000180025095e-35 1.1115739249327155 -0.56392109230935039 0.23129808410208011 1.0000000180025095e-35 1.7398845563984902 -0.74883109189762664 -1.1298564751295501 -1.075540817230862 -1.4022505425640979 1.0000000180025095e-35 -1.4022505425640979 1.0000000180025095e-35 -0.5417573336879089 1.0000000180025095e-35 1.0000000180025095e-35 1.0000000180025095e-35 1.0000000180025095e-35 1.0000000180025095e-35 1.0000000180025095e-35 1.0000000180025095e-35 -0.74883109189762664 1.0000000180025095e-35 1.0000000180025095e-35 -0.39733663704884026 1.0000000180025095e-35 1.0000000180025095e-35 0.69270017062219891 1.0000000180025095e-35
decision_type=2 2 2 2 2 2 2 2 2 2 2 2 2 2 2 2 2 2 2 2 2 2 2 2 2 2 2 2 2 2
left_child=3 5 4 7 12 9 19 -1 24 -2 -5 25 -3 27 -12 -16 -14 21 -11 20 26 -9 -8 -24 -6 -7 -4 28 -10 -19
right_child=1 2 6 10 8 11 22 17 13 18 14 -13 16 -15 15 -17 -18 29 -20 -21 -22 -23 23 -25 -26 -27 -28 -29 -30 -31
leaf_value=-91175.293898213989 10088.965833875869 -35210.867696777343 252849.27000000002 -62993.004333045625 84157.779010295868 371709.41651376151 66675.595869954428 -65909.623772640844 13012.875686223259 207730.98109700522 17704.842204385903 576497.60869565222 15712.37172556002 74880.869766981865 -13429.516847536303 -70748.921175700394 -46263.544774615577 -28313.71059595744 370097.27068965521 7976.4516917219071 71882.578388414884 -29377.493836158013 141171.2507273707 246816.49180610236 212944.71101190476 234418.09474999999 125798.83996710526 130597.6125 68880.691765690659 131648.08806818182
leaf_weight=1468 36 600 45 586 640 109 48 2839 1188 480 829 23 2063 511 2443 314 252 768 29 99 456 620 116 127 42 50 190 51 238 22
leaf_count=1468 36 600 45 586 640 109 48 2839 1188 480 829 23 2063 511 2443 314 252 768 29 99 456 620 116 127 42 50 190 51 238 22
internal_value=0 58878.1 38851.2 -44017.1 24926 242508 110796 -62624.7 52278 203315 -18518.7 359872 -127.036 38620.5 -11251 -19957.7 8965.97 -52760.7 216982 87149.5 98492.7 -59361.5 174990 196385 92088.9 328536 150128 26075.4 22337.2 -23859.1
internal_weight=0 7393 6666 9889 5585 727 1081 5717 2670 545 4172 182 2915 1988 3586 2757 2315 4249 509 790 691 3459 291 243 682 159 235 1477 1426 790
internal_count=17282 7393 6666 9889 5585 727 1081 5717 2670 545 4172 182 2915 1988 3586 2757 2315 4249 509 790 691 3459 291 243 682 159 235 1477 1426 790
is_linear=0
shrinkage=0.1


Tree=13
num_leaves=31
num_cat=0
split_feature=2 268 1 269 31 2 2 2 0 0 188 19 16 33 20 16 26 214 0 37 28 0 12 16 4 2 0 0 27 2
split_gain=3.62937e+15 2.19696e+15 5.65459e+14 3.90675e+14 2.7087e+14 2.33687e+14 2.11989e+14 2.01675e+14 1.26198e+14 1.21261e+14 1.00071e+14 9.97277e+13 9.77958e+13 8.49395e+13 8.43191e+13 7.26092e+13 7.20902e+13 7.00128e+13 6.8007e+13 6.15109e+13 7.17117e+13 8.36374e+13 5.76991e+13 5.96611e+13 5.73235e+13 7.28436e+13 5.59954e+13 5.30858e+13 5.24056e+13 5.18806e+13
threshold=0.15863613387629036 1.0000000180025095e-35 -0.76348729362536261 1.0000000180025095e-35 1.0000000180025095e-35 1.1115739249327155 -0.98279484661986682 1.7398845563984902 -0.42212136656439109 -0.42212136656439109 1.0000000180025095e-35 1.0000000180025095e-35 1.0000000180025095e-35 1.0000000180025095e-35 1.0000000180025095e-35 1.0000000180025095e-35 1.0000000180025095e-35 1.0000000180025095e-35 -0.42212136656439109 1.0000000180025095e-35 1.0000000180025095e-35 0.88471753476855142 1.0000000180025095e-35 1.0000000180025095e-35 1.0000000180025095e-35 0.69270017062219891 -1.075540817230862 0.5580078094353158 1.0000000180025095e-35 0.69270017062219891
decision_type=2 2 2 2 2 2 2 2 2 2 2 2 2 2 2 2 2 2 2 2 2 2 2 2 2 2 2 2 2 2
left_child=3 4 7 6 9 8 14 11 -4 -2 27 13 26 17 -1 -7 28 24 -17 20 21 -11 23 -5 25 -3 -8 -6 -10 -18
right_child=1 2 5 22 10 15 12 -9 16 19 -12 -13 -14 -15 -16 18 29 -19 -20 -21 -22 -23 -24 -25 -26 -27 -28 -29 -30 -31
leaf_value=-84854.797935855269 54801.836277043272 46899.011617443757 -11356.415020032891 -18830.072179706352 196019.44843750002 56675.468667166577 -70227.308463028559 208418.53668592439 -7065.5353321324646 160443.93052520754 518847.85760869563 -48695.836917114262 -13993.373965361474 265290.81406250002 -44628.617991327912 80564.301821474495 111412.99005877295 183652.09105603449 225386.19982954548 89042.15833333334 99188.836718750012 259381.02507295721 78435.64170593262 14796.614738288743 151114.17965116279 91592.585489890538 -40139.914557119933 329182.61129201681 29760.727170088325 37572.928070272079
leaf_weight=1900 65 806 1791 1622 40 476 793 119 796 128 23 64 1219 24 718 79 109 58 55 45 50 257 80 782 86 666 2812 119 751 749
leaf_count=1900 65 806 1791 1622 40 476 793 119 796 128 23 64 1219 24 718 79 109 58 55 45 50 257 80 782 86 666 2812 119 751 749
internal_value=0 53233.5 35135.4 -39450.5 218258 17147.6 -50912.3 82556.9 8739.98 182984 323885 73767.2 -38478.8 78546.3 -73822.6 74980.9 23705.7 75772.8 140006 200342 211856 226488 -5111.34 -7891.61 71756.8 67120.4 -46758.3 295682 10812 46953.5
internal_weight=0 7356 6629 9926 727 4806 7442 1823 4196 545 182 1704 4824 1640 2618 610 2405 1616 134 480 435 385 2484 2404 1558 1472 3605 159 1547 858
internal_count=17282 7356 6629 9926 727 4806 7442 1823 4196 545 182 1704 4824 1640 2618 610 2405 1616 134 480 435 385 2484 2404 1558 1472 3605 159 1547 858
is_linear=0
shrinkage=0.1


Tree=14
num_leaves=31
num_cat=0
split_feature=269 268 2 1 31 16 31 0 15 2 2 1 0 0 0 26 30 20 19 0 219 27 0 35 40 220 9 0 2 231
split_gain=2.9541e+15 2.04059e+15 5.45773e+14 2.37959e+14 2.10266e+14 1.67005e+14 1.06835e+14 1.08423e+14 1.0458e+14 9.43677e+13 8.55125e+13 8.54064e+13 8.48548e+13 7.9558e+13 7.54228e+13 7.23842e+13 7.05029e+13 6.82985e+13 6.62382e+13 6.48191e+13 5.37937e+13 5.31319e+13 5.04781e+13 4.74747e+13 4.76315e+13 4.57556e+13 4.88241e+13 4.46205e+13 4.29143e+13 4.08993e+13
threshold=1.0000000180025095e-35 1.0000000180025095e-35 1.1115739249327155 -0.93110805341820235 1.0000000180025095e-35 1.0000000180025095e-35 1.0000000180025095e-35 1.0000000180025095e-35 1.0000000180025095e-35 0.15863613387629036 -0.98279484661986682 -1.3429182796029575 -0.42212136656439109 -1.4022505425640979 0.88471753476855142 1.0000000180025095e-35 1.0000000180025095e-35 1.0000000180025095e-35 1.0000000180025095e-35 1.5381369854350229 1.0000000180025095e-35 1.0000000180025095e-35 -1.4022505425640979 1.0000000180025095e-35 1.0000000180025095e-35 1.0000000180025095e-35 1.0000000180025095e-35 -1.4022505425640979 0.69270017062219891 1.0000000180025095e-35
decision_type=2 2 2 2 2 2 2 2 2 2 2 2 2 2 2 2 2 2 2 2 2 2 2 2 2 2 2 2 2 2
left_child=5 4 3 9 13 10 14 -8 12 -3 17 -6 29 -2 -4 21 -16 -1 19 -11 25 23 -12 24 -14 26 -15 -7 -17 -5
right_child=1 2 6 8 11 27 7 -9 -10 18 22 -13 15 20 16 28 -18 -19 -20 -21 -22 -23 -24 -25 -26 -27 -28 -29 -30 -31
leaf_value=-76369.318314144737 -28441.919716796874 18144.222632482302 49311.223208028328 -9353.4904663651942 409283.90271739132 -44366.14044291179 97803.741368059433 258474.51991071427 -35400.109284539474 60315.25644984356 -71384.78094704781 251656.23892463237 -9281.9092907600552 150124.89650053723 123155.4602478521 96860.506530761719 4597.3502947577117 -40165.75559046329 -47040.236945950259 127681.51782367684 307149.44353448274 27464.152130376922 -38344.160894211884 74853.434457236843 112334.58731060606 266851.68779761903 299677.40869565221 -1967.072773990029 34492.396955439988 63152.494106867285
leaf_weight=1900 20 661 476 1968 46 336 105 70 570 819 538 136 1335 429 371 128 58 718 49 173 29 1053 3290 76 33 42 23 950 799 81
leaf_count=1900 20 661 476 1968 46 336 105 70 570 819 538 136 1335 429 371 128 58 718 49 173 29 1053 3290 76 33 42 23 950 799 81
internal_value=0 37201.4 23952.3 14665.8 198475 -45948.5 90548.2 162072 5363.48 47694.2 -52512.9 291496 9608.91 167297 76717.6 19241.2 107127 -66440.3 66457.4 72063.6 174783 10382.2 -42987.8 -2074.41 -6348.18 167012 157735 -13044.9 43104.2 -6487.22
internal_weight=0 9550 8825 7745 725 7732 1080 175 6043 1702 6446 182 5473 543 905 3424 429 2618 1041 992 523 2497 3828 1444 1368 494 452 1286 927 2049
internal_count=17282 9550 8825 7745 725 7732 1080 175 6043 1702 6446 182 5473 543 905 3424 429 2618 1041 992 523 2497 3828 1444 1368 494 452 1286 927 2049
is_linear=0
shrinkage=0.1


Tree=15
num_leaves=31
num_cat=0
split_feature=269 268 2 1 31 16 15 2 2 92 1 2 0 2 214 1 40 26 30 10 51 0 219 4 0 43 0 2 220 9
split_gain=2.39282e+15 1.65288e+15 4.42076e+14 1.94675e+14 1.70315e+14 1.35274e+14 8.71463e+13 8.70489e+13 8.08108e+13 7.79722e+13 7.58344e+13 6.92651e+13 6.4442e+13 5.53326e+13 5.52174e+13 5.29759e+13 5.14366e+13 5.12741e+13 5.06448e+13 7.1525e+13 5.42227e+13 4.40696e+13 4.35729e+13 4.28775e+13 4.88993e+13 4.03224e+13 3.95188e+13 3.71742e+13 3.7062e+13 3.95475e+13
threshold=1.0000000180025095e-35 1.0000000180025095e-35 1.1115739249327155 -1.0281695421227546 1.0000000180025095e-35 1.0000000180025095e-35 1.0000000180025095e-35 1.7398845563984902 -0.56392109230935039 1.0000000180025095e-35 0.039300448973414552 -0.98279484661986682 -1.4022505425640979 -1.4435559763614347 1.0000000180025095e-35 -1.0138682996344539 1.0000000180025095e-35 1.0000000180025095e-35 1.0000000180025095e-35 1.0000000180025095e-35 1.0000000180025095e-35 -0.74883109189762664 1.0000000180025095e-35 1.0000000180025095e-35 0.5580078094353158 1.0000000180025095e-35 -1.4022505425640979 0.69270017062219891 1.0000000180025095e-35 1.0000000180025095e-35
decision_type=2 2 2 2 2 2 2 2 2 2 2 2 2 2 2 2 2 2 2 2 2 2 2 2 2 2 2 2 2 2
left_child=5 4 3 8 12 11 10 18 -3 -6 17 13 -2 -1 16 -9 25 27 19 20 -4 -13 28 24 -23 -10 -12 -5 29 -14
right_child=1 2 7 6 9 -7 -8 15 14 -11 26 21 22 -15 -16 -17 -18 -19 -20 -21 -22 23 -24 -25 -26 -27 -28 -29 -30 -31
leaf_value=-36214.750020740103 -25597.725996093752 -5684.5685255671124 218823.86789772729 8390.3319514086215 334628.10091463418 -11740.410914376884 -30670.648254109699 203347.30126540494 50370.139519349294 203075.72578125002 -26077.554708453066 -53359.821198866353 135112.40453680436 -68758.993596797576 161990.80442708335 104002.50779296875 139667.94951171876 46604.646573263351 -2634.2924163510106 50784.735281746849 95628.219839638157 -35870.714736657923 276434.49482758623 -70300.784278328196 -3288.5679774005785 -78107.477859374994 4038.616961377018 49311.371615921205 240166.52708333335 269709.68260869564
leaf_weight=721 20 249 44 1630 82 1286 600 71 1068 100 522 1334 429 1897 48 220 64 646 99 456 190 1599 29 248 647 25 2636 257 42 23
leaf_count=721 20 249 44 1630 82 1286 600 71 1068 100 522 1334 429 1897 48 220 64 646 99 456 190 1599 29 248 647 25 2636 257 42 23
internal_value=0 33481.3 21557.1 13199.3 178628 -41353.6 5577.3 81493.4 46177.1 262347 9398.91 -47261.6 150568 -59796.3 56893.7 128241 52533.6 22288.1 64251.8 73848.5 118793 -38689 157304 -30841.8 -26484.9 47431.5 -939.42 13963.6 150311 141961
internal_weight=0 9550 8825 7745 725 7732 6291 1080 1454 182 5691 6446 543 2618 1205 291 1157 2533 789 690 234 3828 523 2494 2246 1093 3158 1887 494 452
internal_count=17282 9550 8825 7745 725 7732 6291 1080 1454 182 5691 6446 543 2618 1205 291 1157 2533 789 690 234 3828 523 2494 2246 1093 3158 1887 494 452
is_linear=0
shrinkage=0.1


Tree=16
num_leaves=31
num_cat=0
split_feature=2 2 0 0 2 33 44 0 1 0 2 19 15 1 0 54 25 16 29 30 16 22 6 0 14 26 35 25 0 0
split_gain=1.94276e+15 1.18175e+15 4.96909e+14 2.57125e+14 2.18609e+14 1.95311e+14 1.03766e+14 9.04776e+13 8.28357e+13 8.15465e+13 7.19798e+13 6.99127e+13 6.01066e+13 5.99031e+13 5.77458e+13 5.60839e+13 6.25433e+13 5.0583e+13 5.16431e+13 4.48642e+13 5.35091e+13 5.9255e+13 5.57537e+13 4.406e+13 4.28257e+13 3.96797e+13 3.95497e+13 3.67608e+13 3.22592e+13 3.10608e+13
threshold=0.15863613387629036 2.577632065019523 0.88471753476855142 0.88471753476855142 -0.56392109230935039 1.0000000180025095e-35 1.0000000180025095e-35 -0.42212136656439109 0.01503204172883668 -0.74883109189762664 0.69270017062219891 1.0000000180025095e-35 1.0000000180025095e-35 -1.4190135155254258 -1.4022505425640979 1.0000000180025095e-35 1.0000000180025095e-35 1.0000000180025095e-35 1.0000000180025095e-35 1.0000000180025095e-35 1.0000000180025095e-35 1.0000000180025095e-35 1.0000000180025095e-35 0.88471753476855142 1.0000000180025095e-35 1.0000000180025095e-35 1.0000000180025095e-35 1.0000000180025095e-35 -1.4022505425640979 -1.4022505425640979
decision_type=2 2 2 2 2 2 2 2 2 2 2 2 2 2 2 2 2 2 2 2 2 2 2 2 2 2 2 2 2 2
left_child=4 2 7 14 9 6 11 27 24 -1 25 15 28 -5 -3 16 19 18 23 20 21 22 -4 -11 -6 26 -9 29 -10 -2
right_child=1 3 5 13 8 -7 -8 10 12 17 -12 -13 -14 -15 -16 -17 -18 -19 -20 -21 -22 -23 -24 -25 -26 -27 -28 -29 -30 -31
leaf_value=-61915.808402561946 -22441.373000081381 -6693.6971139618854 99903.55505035544 330220.48387681157 10250.805736693505 174408.31044560185 266269.296875 -6495.3169482922785 -40816.911602783206 -47625.487088407863 34164.310420253474 -43263.982429162781 -63914.235466508711 219836.11839078495 131617.44662561794 -22499.546229454139 2420.7261220435571 116661.98039772728 -11389.876491366449 -2272.1383474615554 47001.490138775669 -18254.094110231985 -25481.577325274495 -22820.833551395117 -82093.384660456737 84000.96200657895 62404.706319444442 -51189.969772356111 -11140.786271239413 6313.0999312255863
leaf_weight=1468 564 33 854 69 1468 162 24 1121 452 2479 1646 67 305 171 354 77 146 22 741 79 454 49 37 1007 52 57 90 177 1932 1125
leaf_count=1468 564 33 854 69 1468 162 24 1121 452 2479 1646 67 305 171 354 77 146 22 741 79 454 49 37 1007 52 57 90 177 1932 1125
internal_value=0 38947.5 26712.6 170253 -28863.4 69269.6 59738.3 9360.33 -11567.5 -41597 20369.8 56926.7 -22114.9 251572 119823 60884.7 64850.5 -34577 -35364.1 71038.4 75193 88808.9 94696.8 -40460.2 7091.66 2463.11 -1374.75 -7832.43 -16767.3 -3288.75
internal_weight=0 7356 6729 627 9926 1949 1787 4780 4209 5717 2914 1763 2689 240 387 1696 1619 4249 4227 1473 1394 940 891 3486 1520 1268 1211 1866 2384 1689
internal_count=17282 7356 6729 627 9926 1949 1787 4780 4209 5717 2914 1763 2689 240 387 1696 1619 4249 4227 1473 1394 940 891 3486 1520 1268 1211 1866 2384 1689
is_linear=0
shrinkage=0.1


Tree=17
num_leaves=31
num_cat=0
split_feature=269 268 2 1 31 182 31 0 286 188 2 2 0 1 2 33 9 245 214 1 0 40 1 4 0 7 0 15 5 15
split_gain=1.60095e+15 1.08079e+15 2.87173e+14 1.41185e+14 1.21765e+14 9.41406e+13 6.4309e+13 7.45242e+13 6.31583e+13 6.07918e+13 5.76791e+13 5.32908e+13 5.22802e+13 4.32797e+13 5.6416e+13 4.21752e+13 5.92772e+13 3.989e+13 3.87192e+13 3.57604e+13 3.55278e+13 3.46993e+13 3.18191e+13 3.04669e+13 4.74517e+13 2.93993e+13 2.91587e+13 2.98489e+13 2.83044e+13 2.79758e+13
threshold=1.0000000180025095e-35 1.0000000180025095e-35 1.1115739249327155 -1.0281695421227546 1.0000000180025095e-35 1.0000000180025095e-35 1.0000000180025095e-35 1.0000000180025095e-35 1.0000000180025095e-35 1.0000000180025095e-35 -0.98279484661986682 -0.56392109230935039 1.211427260101787 -0.12919441053008526 2.8917873807524104 1.0000000180025095e-35 1.0000000180025095e-35 1.0000000180025095e-35 1.0000000180025095e-35 -1.2956319133109961 -1.4022505425640979 1.0000000180025095e-35 -0.39733663704884026 1.0000000180025095e-35 0.23129808410208011 1.0000000180025095e-35 -1.4022505425640979 1.0000000180025095e-35 1.0000000180025095e-35 1.0000000180025095e-35
decision_type=2 2 2 2 2 2 2 2 2 2 2 2 2 2 2 2 2 2 2 2 2 2 2 2 2 2 2 2 2 2
left_child=5 4 3 11 13 10 12 -8 26 22 17 -3 -4 14 15 16 -2 -1 21 -16 -12 25 -6 24 -22 28 -5 -28 -13 -10
right_child=1 2 6 8 9 -7 7 -9 29 -11 20 18 -14 -15 19 -17 -18 -19 -20 -21 23 -23 -24 -25 -26 -27 27 -29 -30 -31
leaf_value=-55874.327173439087 39858.241666085378 -3023.0133858186655 42437.331177504471 -27296.802752004158 223860.97289277526 1368.7899474392048 68261.002433035712 201467.02901785716 22686.205668631257 367501.2913043478 -50578.269379235368 34728.092316162874 100159.11489402846 69670.441833738296 278070.55681818182 148931.99244502315 216111.78260869568 -26724.941194299696 135801.36731770833 159861.6020010965 -31366.11847692787 115710.79941406251 127512.55136914062 -60208.878359099363 -5447.0475798528933 134389.85703124999 3505.2587375834646 -24464.294142574145 149349.51541193182 -21554.798552364227
leaf_weight=2005 112 249 703 421 109 692 105 70 1836 23 724 1039 202 126 33 135 23 613 48 114 2459 64 50 248 991 32 3450 429 22 155
leaf_count=2005 112 249 703 421 109 692 105 70 1836 23 724 1039 202 126 33 135 23 613 48 114 2459 64 50 248 991 32 3450 429 22 155
internal_value=0 27386.5 17744.2 11008 144757 -33825.8 66051.6 121543 4517.07 215544 -37285.3 39092.1 55321.1 121030 136549 109409 69886.6 -49049.1 47794.7 186398 -30320.6 44143.6 193563 -26354.5 -23921 39953 -2300.93 411.952 37104.8 19242
internal_weight=0 9550 8825 7745 725 7732 1080 175 6291 182 7040 1454 905 543 417 270 135 2618 1205 147 4422 1157 159 3698 3450 1093 4300 3879 1061 1991
internal_count=17282 9550 8825 7745 725 7732 1080 175 6291 182 7040 1454 905 543 417 270 135 2618 1205 147 4422 1157 159 3698 3450 1093 4300 3879 1061 1991
is_linear=0
shrinkage=0.1


Tree=18
num_leaves=31
num_cat=0
split_feature=269 268 2 0 31 16 26 206 40 1 188 2 27 35 7 68 0 180 10 231 0 43 25 243 245 37 81 1 5 0
split_gain=1.29677e+15 8.75441e+14 2.3261e+14 1.20159e+14 9.86293e+13 7.84572e+13 6.76147e+13 6.7347e+13 5.91872e+13 5.81783e+13 4.92414e+13 4.86501e+13 4.57706e+13 4.60193e+13 4.48091e+13 4.31279e+13 4.17254e+13 4.12062e+13 6.04828e+13 3.98246e+13 3.8841e+13 3.21676e+13 2.99041e+13 3.59129e+13 3.3965e+13 2.8829e+13 2.99733e+13 3.72243e+13 2.78191e+13 2.72849e+13
threshold=1.0000000180025095e-35 1.0000000180025095e-35 1.1115739249327155 0.88471753476855142 1.0000000180025095e-35 1.0000000180025095e-35 1.0000000180025095e-35 1.0000000180025095e-35 1.0000000180025095e-35 -1.2467915919778612 1.0000000180025095e-35 0.69270017062219891 1.0000000180025095e-35 1.0000000180025095e-35 1.0000000180025095e-35 1.0000000180025095e-35 -1.075540817230862 1.0000000180025095e-35 1.0000000180025095e-35 1.0000000180025095e-35 -1.4022505425640979 1.0000000180025095e-35 1.0000000180025095e-35 1.0000000180025095e-35 1.0000000180025095e-35 1.0000000180025095e-35 1.0000000180025095e-35 -0.61595868690394695 1.0000000180025095e-35 0.23129808410208011
decision_type=2 2 2 2 2 2 2 2 2 2 2 2 2 2 2 2 2 2 2 2 2 2 2 2 2 2 2 2 2 2
left_child=5 4 3 7 20 16 8 12 11 -4 29 14 13 15 21 19 -1 18 -11 -3 -2 28 23 24 -18 26 27 -22 -5 -6
right_child=1 2 9 6 10 -7 -8 -9 -10 17 -12 -13 -14 -15 -16 -17 22 -19 -20 -21 25 -23 -24 -25 -26 -27 -28 -29 -30 -31
leaf_value=-49558.409690786699 -27839.600192871098 -17261.246526448544 110831.76100420509 12871.474603364661 88305.718958333338 -7890.6816732593497 86529.768109193785 24653.059841823491 96839.040274532716 85303.403615906427 330751.16195652174 69625.593084988068 9593.3074074198394 59745.522232707161 126761.82500000001 77751.662618719376 -45907.191354218987 -21481.842294472142 30778.743367996725 53952.882581018523 151600.63699175982 -75052.004906631104 -12135.998392605434 -17242.161689632929 -23658.855828661523 37638.030781250003 40680.133258928574 91132.877375096461 113460.06725725446 194183.36947674421
leaf_weight=1499 20 2572 183 1523 30 1286 194 1087 107 372 23 180 1757 89 35 51 2201 76 449 81 274 41 751 998 997 45 42 162 28 129
leaf_count=1499 20 2572 183 1523 30 1286 194 1087 107 372 23 180 1757 89 35 51 2201 76 449 81 274 41 751 998 997 45 42 162 28 129
internal_value=0 24647.8 15969.8 9907.18 130281 -30443.2 30275.5 2290.27 24573.7 59446.4 193990 20294.6 -3052.22 -11007.2 14836.9 -13335.9 -34942.5 48963.1 55484.2 -15087 108927 12376.3 -30513.7 -33803 -38971.1 114158 121361 129133 14687.4 174206
internal_weight=0 9550 8825 7745 725 7732 2108 5637 1914 1080 182 1807 4550 2793 1627 2704 6446 897 821 2653 543 1592 4947 4196 3198 523 478 436 1551 159
internal_count=17282 9550 8825 7745 725 7732 2108 5637 1914 1080 182 1807 4550 2793 1627 2704 6446 897 821 2653 543 1592 4947 4196 3198 523 478 436 1551 159
is_linear=0
shrinkage=0.1


Tree=19
num_leaves=31
num_cat=0
split_feature=269 2 1 1 33 44 2 26 182 2 26 40 0 0 2 15 1 45 1 0 20 4 0 43 0 0 2 5 11 119
split_gain=1.05038e+15 7.20184e+14 2.37138e+14 1.57281e+14 1.36895e+14 7.04028e+13 6.69332e+13 7.22888e+13 6.57819e+13 5.51171e+13 8.18845e+13 4.56027e+13 4.21952e+13 3.96376e+13 3.92307e+13 3.16587e+13 3.00367e+13 2.80238e+13 2.60574e+13 2.50751e+13 2.453e+13 2.43274e+13 2.30455e+13 2.2801e+13 2.21064e+13 2.11002e+13 2.06035e+13 1.77719e+13 1.79193e+13 1.81512e+13
threshold=1.0000000180025095e-35 2.577632065019523 -0.76348729362536261 -1.004156080627119 1.0000000180025095e-35 1.0000000180025095e-35 0.69270017062219891 1.0000000180025095e-35 1.0000000180025095e-35 0.69270017062219891 1.0000000180025095e-35 1.0000000180025095e-35 -1.4022505425640979 -0.74883109189762664 -0.98279484661986682 1.0000000180025095e-35 -0.10503526574933994 1.0000000180025095e-35 -1.3927176825630669 -0.74883109189762664 1.0000000180025095e-35 1.0000000180025095e-35 0.88471753476855142 1.0000000180025095e-35 1.0000000180025095e-35 -0.42212136656439109 -0.98279484661986682 1.0000000180025095e-35 1.0000000180025095e-35 1.0000000180025095e-35
decision_type=2 2 2 2 2 2 2 2 2 2 2 2 2 2 2 2 2 2 2 2 2 2 2 2 2 2 2 2 2 2
left_child=8 2 4 18 5 6 7 11 14 10 24 20 -5 -11 15 -1 -16 -8 -3 -17 21 23 -14 27 -4 -10 -26 28 29 -2
right_child=1 3 9 12 -6 -7 17 -9 25 13 -12 -13 22 -15 16 19 -18 -19 -20 -21 -22 -23 -24 -25 26 -27 -28 -29 -30 -31
leaf_value=-89102.302200000006 15913.272982213697 246278.54531250001 -18520.447240758826 -18557.737600806453 131288.96004253186 204204.92500000002 51359.237657789075 99705.639828055253 -8099.4672998376809 -4009.7961067695855 58624.108903416462 87823.230686773255 90630.176570490061 22321.480692535479 -12258.662408283781 -51700.569450525138 -30074.579619366257 123057.57529131357 170056.59876893941 -30432.092498668138 -19516.096554474785 -42607.903116607667 149865.06462938263 -62985.183911132815 -33481.577508111339 32149.664802779276 1814.3367837543954 105948.75553125002 70856.019393382347 82017.280559593026
leaf_weight=125 1222 82 1296 31 152 24 717 112 518 815 193 86 330 1915 1372 832 3050 59 99 1661 202 64 82 32 183 174 1718 25 68 43
leaf_count=125 1222 82 1296 31 152 24 717 112 518 815 193 86 330 1915 1372 832 3050 59 99 1661 202 64 82 32 183 174 1718 25 68 43
internal_value=0 22183.1 14922.3 126045 38993.8 33707.9 32152 21831.1 -27398.9 3885.54 -4630.72 16824.2 93954 14460.7 -30290.7 -39992.5 -24546.9 56810.5 204588 -37530.1 13137.1 17673.5 102420 20449 -8449.36 2020.98 -1583.43 22415.1 20848.4 18160.3
internal_weight=0 9550 8926 624 2806 2654 2630 1854 7732 6120 3390 1742 443 2730 7040 2618 4422 776 181 2493 1656 1454 412 1390 3197 692 1901 1358 1333 1265
internal_count=17282 9550 8926 624 2806 2654 2630 1854 7732 6120 3390 1742 443 2730 7040 2618 4422 776 181 2493 1656 1454 412 1390 3197 692 1901 1358 1333 1265
is_linear=0
shrinkage=0.1


Tree=20
num_leaves=31
num_cat=0
split_feature=269 2 1 0 33 1 2 16 2 0 26 44 2 0 60 243 35 40 0 19 288 27 7 288 313 25 34 2 26 4
split_gain=8.50812e+14 5.83349e+14 1.98348e+14 1.29853e+14 8.87909e+13 6.22936e+13 6.39259e+13 5.35704e+13 5.29327e+13 5.71405e+13 5.19113e+13 5.02555e+13 3.61006e+13 3.12525e+13 3.29574e+13 3.79579e+13 2.55614e+13 2.58841e+13 2.51527e+13 2.4533e+13 2.43646e+13 2.25992e+13 1.91176e+13 1.91039e+13 1.90584e+13 1.6462e+13 1.64384e+13 1.61261e+13 3.22072e+13 2.07679e+13
threshold=1.0000000180025095e-35 2.577632065019523 -1.1742898770881067 1.211427260101787 1.0000000180025095e-35 0.015481231857925914 0.69270017062219891 1.0000000180025095e-35 3.2059426964852977 1.0000000180025095e-35 1.0000000180025095e-35 1.0000000180025095e-35 -0.98279484661986682 0.88471753476855142 1.0000000180025095e-35 1.0000000180025095e-35 1.0000000180025095e-35 1.0000000180025095e-35 -1.4022505425640979 1.0000000180025095e-35 1.0000000180025095e-35 1.0000000180025095e-35 1.0000000180025095e-35 1.0000000180025095e-35 1.0000000180025095e-35 1.0000000180025095e-35 1.0000000180025095e-35 0.69270017062219891 1.0000000180025095e-35 1.0000000180025095e-35
decision_type=2 2 2 2 2 2 2 2 2 2 2 2 2 2 2 2 2 2 2 2 2 2 2 2 2 2 2 2 2 2
left_child=7 2 4 8 11 6 10 13 9 -3 16 12 -2 14 15 -1 17 21 -9 27 24 22 26 -8 25 -7 -4 28 29 -14
right_child=1 3 5 -5 -6 20 23 18 -10 -11 -12 -13 19 -15 -16 -17 -18 -19 -20 -21 -22 -23 -24 -25 -26 -27 -28 -29 -30 -31
leaf_value=-38484.391613850996 -11294.17742038303 51631.346383521675 -9343.7878542959006 208401.51378121664 121562.68634463027 6404.9678544056906 37928.900071924807 -29539.536615426201 -53426.283626302087 123847.71563476563 66955.0176034709 185114.82717391304 25611.171017059831 -10486.628567425711 -11757.184178381893 -16096.113624256215 54831.9716796875 70622.366973039214 2293.7630889185853 -56383.819898437505 -23819.819504187719 17698.066687796818 85819.209126420465 8051.6686192965781 -19878.549238873471 -17765.751125937015 64149.782828251009 61499.578087797621 100039.55516493056 91078.111433293278
leaf_weight=3896 144 168 1667 117 142 2306 1149 336 24 315 131 23 711 848 762 940 89 51 950 25 484 482 22 263 404 321 31 357 72 52
leaf_count=3896 144 168 1667 117 142 2306 1149 336 24 315 131 23 711 848 762 940 89 51 950 25 484 482 22 263 404 321 31 357 72 52
internal_value=0 19964.8 13430 113440 46256.5 6660.7 15387.9 -24659 91526.4 98729 5695.08 38530 36052.8 -28376.8 -31086.9 -34132.7 2268.5 192.091 -6023.49 41655.1 -2985.11 -1439.13 -6801.99 32363.9 341.84 3451.48 -8002.03 43711.2 36105.9 30072.9
internal_weight=0 9550 8926 624 1526 7400 3885 7732 507 483 2473 1384 1361 6446 5598 4836 2342 2253 1286 1217 3515 2202 1720 1412 3031 2627 1698 1192 835 763
internal_count=17282 9550 8926 624 1526 7400 3885 7732 507 483 2473 1384 1361 6446 5598 4836 2342 2253 1286 1217 3515 2202 1720 1412 3031 2627 1698 1192 835 763
is_linear=0
shrinkage=0.1


Tree=21
num_leaves=31
num_cat=0
split_feature=2 269 1 0 33 0 0 2 182 19 2 44 49 0 1 286 30 54 17 13 6 25 22 135 120 2 2 38 15 0
split_gain=6.89407e+14 4.66416e+14 1.54502e+14 1.28441e+14 6.19526e+13 5.56348e+13 5.44951e+13 4.71393e+13 4.56322e+13 4.26479e+13 3.88193e+13 3.62714e+13 3.26836e+13 2.99908e+13 2.86863e+13 2.63218e+13 2.61228e+13 2.68274e+13 2.36416e+13 2.25242e+13 2.16188e+13 2.20709e+13 2.41438e+13 2.54201e+13 2.68294e+13 2.15067e+13 2.14631e+13 1.88984e+13 1.92983e+13 1.71565e+13
threshold=1.7398845563984902 1.0000000180025095e-35 -1.2702101800592973 1.211427260101787 1.0000000180025095e-35 -1.4022505425640979 0.5580078094353158 0.15863613387629036 1.0000000180025095e-35 1.0000000180025095e-35 3.2059426964852977 1.0000000180025095e-35 1.0000000180025095e-35 -0.74883109189762664 -0.32529625256193428 1.0000000180025095e-35 1.0000000180025095e-35 1.0000000180025095e-35 1.0000000180025095e-35 1.0000000180025095e-35 1.0000000180025095e-35 1.0000000180025095e-35 1.0000000180025095e-35 1.0000000180025095e-35 1.0000000180025095e-35 -0.98279484661986682 2.577632065019523 1.0000000180025095e-35 1.0000000180025095e-35 0.5580078094353158
decision_type=2 2 2 2 2 2 2 2 2 2 2 2 2 2 2 2 2 2 2 2 2 2 2 2 2 2 2 2 2 2
left_child=1 8 4 5 11 -2 12 -8 13 16 14 25 15 -1 26 -4 17 20 19 27 21 22 23 24 -9 -3 -7 28 -15 -30
right_child=3 2 6 -5 -6 10 7 9 -10 -11 -12 -13 -14 18 -16 -17 -18 -19 -20 -21 -22 -23 -24 -25 -26 -27 -28 -29 29 -31
leaf_value=-33494.418478860876 -21432.601876395089 -6478.1809301990579 -4696.4739039980477 179688.135859375 107965.991216682 56209.040820312504 -3717.8977277832037 47570.656167531568 2279.5334641561344 -32814.150786718754 -44153.446637228262 163509.24090909094 -54029.039429791206 -4479.6871111206183 65279.935131471546 12163.336244987511 -23947.534083573191 -13351.904208893953 -94497.476190476198 -70420.954092261905 -16485.409054744945 -696.21153245670791 -15749.164881310098 3226.5090940837617 -48022.826178385418 38774.480187726251 125680.96411404079 -46927.826279881912 -25724.365618601154 -10359.123154355213
leaf_weight=2475 56 118 3038 140 136 56 850 1376 692 125 23 22 113 993 268 1332 95 135 42 84 85 157 78 158 30 955 216 217 2108 1109
leaf_count=2475 56 118 3038 140 136 56 850 1376 692 125 23 22 113 993 268 1332 95 135 42 84 85 157 78 158 30 955 216 217 2108 1109
internal_value=0 -4280.72 11453.1 93188.9 44310.1 73625.3 6111.49 16331.4 -22221.8 23942.8 83080.4 36404 -930.539 -24634.3 88499.7 442.489 27298.9 29710.2 -19818 -19122.6 32795.8 35124.3 38549.3 41257.2 45531 33798 111378 -18149.3 -16665.9 -20427.5
internal_weight=0 16523 8803 759 1231 619 7572 3089 7720 2239 563 1095 4483 7028 540 4370 2114 2019 4553 4511 1884 1799 1642 1564 1406 1073 272 4427 4210 3217
internal_count=17282 16523 8803 759 1231 619 7572 3089 7720 2239 563 1095 4483 7028 540 4370 2114 2019 4553 4511 1884 1799 1642 1564 1406 1073 272 4427 4210 3217
is_linear=0
shrinkage=0.1


Tree=22
num_leaves=31
num_cat=0
split_feature=269 2 1 0 1 2 0 2 33 2 19 0 182 44 288 1 15 206 129 25 313 4 0 2 14 2 231 22 0 54
split_gain=5.58496e+14 3.87474e+14 1.26749e+14 1.00556e+14 5.10955e+13 4.57376e+13 4.10475e+13 3.95064e+13 3.93307e+13 3.19049e+13 3.17512e+13 2.61768e+13 2.62445e+13 2.56398e+13 2.30184e+13 2.25387e+13 2.02554e+13 2.01206e+13 2.01288e+13 1.99016e+13 1.90248e+13 1.81741e+13 2.77172e+13 1.76521e+13 1.72845e+13 1.99177e+13 1.68512e+13 1.64036e+13 1.63237e+13 1.62368e+13
threshold=1.0000000180025095e-35 1.7398845563984902 -1.3679636643681221 1.211427260101787 -0.15330499421579394 0.15863613387629036 -1.4022505425640979 -0.98279484661986682 1.0000000180025095e-35 3.2059426964852977 1.0000000180025095e-35 -1.4022505425640979 1.0000000180025095e-35 1.0000000180025095e-35 1.0000000180025095e-35 -0.32529625256193428 1.0000000180025095e-35 1.0000000180025095e-35 1.0000000180025095e-35 1.0000000180025095e-35 1.0000000180025095e-35 1.0000000180025095e-35 0.23129808410208011 -0.98279484661986682 1.0000000180025095e-35 -0.98279484661986682 1.0000000180025095e-35 1.0000000180025095e-35 -1.075540817230862 1.0000000180025095e-35
decision_type=2 2 2 2 2 2 2 2 2 2 2 2 2 2 2 2 2 2 2 2 2 2 2 2 2 2 2 2 2 2
left_child=7 2 8 6 5 24 -3 16 13 15 14 -9 21 23 19 -8 -1 18 26 20 27 22 -13 -2 25 -4 -6 29 -18 -7
right_child=1 3 4 -5 17 10 9 11 -10 -11 -12 12 -14 -15 -16 -17 28 -19 -20 -21 -22 -23 -24 -25 -26 -27 -28 -29 -30 -31
leaf_value=-69250.968325000009 -5261.6118672297562 -18159.631441482845 -27557.811619421554 161719.32311383929 -9185.0048792262569 39329.324753548419 100773.71885756603 -30622.55363164068 94770.565174737596 -39738.102734375003 -31557.73919699929 -18438.682302747544 8934.2453636929549 145198.09791666668 3619.2743949733153 59640.505812783289 -42580.687389544044 13573.571609488174 17613.960179794667 -4609.5771515066963 6670.4616985869834 -40775.445649177796 1370.5648549900768 38689.911638147933 -69354.512623355258 6316.179113680203 39151.073089104728 -9314.5191157588251 -23508.966145556871 -3078.7132520039877
leaf_weight=125 104 51 219 140 2847 1516 271 874 131 23 110 2459 542 21 486 262 587 686 344 175 285 248 991 753 38 837 74 81 1906 96
leaf_count=125 104 51 219 140 2847 1516 271 874 131 23 110 2459 542 21 486 262 587 686 344 175 285 248 991 753 38 837 74 81 1906 96
internal_value=0 16175.5 10307.8 85322.7 5990.43 14200.2 67702.4 -19978.8 43657.5 75578.3 21082.3 -14864.4 -11616.1 36031.3 23276.5 80554.4 -29969.2 -1994.9 -5265.95 27713.7 30573.5 -14628.1 -12748.5 33356.2 -3093.23 -708.825 -7960.47 34597.3 -27999.6 36803.8
internal_weight=0 9550 8803 747 7794 3843 607 7732 1009 556 2749 5114 4240 878 2639 533 2618 3951 3265 2153 1978 3698 3450 857 1094 1056 2921 1693 2493 1612
internal_count=17282 9550 8803 747 7794 3843 607 7732 1009 556 2749 5114 4240 878 2639 533 2618 3951 3265 2153 1978 3698 3450 857 1094 1056 2921 1693 2493 1612
is_linear=0
shrinkage=0.1


Tree=23
num_leaves=31
num_cat=0
split_feature=2 269 1 1 33 286 0 2 44 286 2 0 26 2 40 1 0 5 2 245 16 288 313 27 15 1 119 0 15 34
split_gain=4.5261e+14 3.06069e+14 1.05931e+14 8.65666e+13 5.40388e+13 3.68399e+13 3.51177e+13 3.18752e+13 2.9248e+13 2.33502e+13 2.30056e+13 2.14656e+13 2.09278e+13 2.68728e+13 2.15521e+13 1.9217e+13 1.83209e+13 1.72534e+13 1.65306e+13 1.6488e+13 1.58701e+13 1.56164e+13 1.66826e+13 1.48523e+13 1.37351e+13 1.55611e+13 1.36079e+13 1.34397e+13 1.27827e+13 1.12245e+13
threshold=1.7398845563984902 1.0000000180025095e-35 -1.0281695421227546 -1.2242592438808444 1.0000000180025095e-35 1.0000000180025095e-35 -1.4022505425640979 -0.98279484661986682 1.0000000180025095e-35 1.0000000180025095e-35 3.2059426964852977 0.88471753476855142 1.0000000180025095e-35 0.69270017062219891 1.0000000180025095e-35 0.45391507839653777 -1.4022505425640979 1.0000000180025095e-35 -0.98279484661986682 1.0000000180025095e-35 1.0000000180025095e-35 1.0000000180025095e-35 1.0000000180025095e-35 1.0000000180025095e-35 1.0000000180025095e-35 0.45391507839653777 1.0000000180025095e-35 0.88471753476855142 1.0000000180025095e-35 1.0000000180025095e-35
decision_type=2 2 2 2 2 2 2 2 2 2 2 2 2 2 2 2 2 2 2 2 2 2 2 2 2 2 2 2 2 2
left_child=1 7 4 20 8 15 -5 19 12 16 11 -8 13 14 17 18 -9 26 -4 28 -2 22 -20 27 25 -7 29 -18 -1 -3
right_child=3 2 5 6 -6 24 10 9 -10 -11 -12 -13 -14 -15 -16 -17 23 -19 21 -21 -22 -23 -24 -25 -26 -27 -28 -29 -30 -31
leaf_value=-62325.873262499998 72136.038102213541 4374.1825191616008 -29430.358370143062 -16891.940873579544 88175.827561649668 22294.664670468836 57946.200445790775 -31888.668119538008 137157.29429347828 -320.88833526072949 -31121.490455163046 101453.74637586805 58640.481125738683 42852.0036951113 69415.325833129886 -10906.959516044722 -19704.484191003743 99614.826413690476 14243.903423653739 -12619.827498286933 161405.18108640495 -7150.9144627710648 -6194.9501089705709 -279.95104267608224 -14813.941258101926 4192.803143016301 73481.789396421373 2213.7591384550751 -29301.438131788538 58995.365256911064
leaf_weight=125 24 1065 151 55 147 1373 378 678 23 1077 23 162 156 398 64 1517 2381 21 1575 613 117 827 535 649 155 726 31 317 1880 39
leaf_count=125 24 1065 151 55 147 1373 378 678 23 1077 23 162 156 398 64 1517 2381 21 1575 613 117 827 535 649 155 726 31 317 1880 39
internal_value=0 -3468.5 9277.04 75507.2 29882.3 3437.03 59375.9 -18002 25113.7 -13399.1 66826.6 70998.5 23661.1 20288.5 12927.7 -1690.29 -16898.6 9800.32 2837.45 -26972.3 146210 4496.44 9061.54 -13862.1 13912.3 16033.6 8138.55 -17129.2 -31360.3 6303.74
internal_weight=0 16523 8803 759 1944 6859 618 7720 1797 5102 563 540 1774 1618 1220 4605 4025 1156 3088 2618 141 2937 2110 3347 2254 2099 1135 2698 2005 1104
internal_count=17282 16523 8803 759 1944 6859 618 7720 1797 5102 563 540 1774 1618 1220 4605 4025 1156 3088 2618 141 2937 2110 3347 2254 2099 1135 2698 2005 1104
is_linear=0
shrinkage=0.1


Tree=24
num_leaves=31
num_cat=0
split_feature=2 269 16 1 1 286 182 30 10 1 0 33 7 120 0 44 0 158 2 19 26 0 17 42 0 43 9 4 2 0
split_gain=3.72355e+14 2.01883e+14 8.55477e+13 8.44427e+13 7.60886e+13 3.08005e+13 2.65024e+13 2.59582e+13 2.87469e+13 2.35146e+13 2.17671e+13 2.05672e+13 1.97591e+13 1.95014e+13 1.92571e+13 1.65236e+13 1.58155e+13 1.63853e+13 1.52615e+13 1.59919e+13 1.46688e+13 1.46314e+13 1.42761e+13 1.41593e+13 1.69461e+13 1.70626e+13 1.28941e+13 1.28482e+13 1.4175e+13 1.68417e+13
threshold=1.1115739249327155 1.0000000180025095e-35 1.0000000180025095e-35 -0.5417573336879089 -1.3927176825630669 1.0000000180025095e-35 1.0000000180025095e-35 1.0000000180025095e-35 1.0000000180025095e-35 -1.3927176825630669 -0.42212136656439109 1.0000000180025095e-35 1.0000000180025095e-35 1.0000000180025095e-35 -0.74883109189762664 1.0000000180025095e-35 -1.4022505425640979 1.0000000180025095e-35 -0.98279484661986682 1.0000000180025095e-35 1.0000000180025095e-35 -0.42212136656439109 1.0000000180025095e-35 1.0000000180025095e-35 0.5580078094353158 1.0000000180025095e-35 1.0000000180025095e-35 1.0000000180025095e-35 -0.98279484661986682 0.23129808410208011
decision_type=2 2 2 2 2 2 2 2 2 2 2 2 2 2 2 2 2 2 2 2 2 2 2 2 2 2 2 2 2 2
left_child=1 6 7 9 11 12 14 8 26 -4 -5 15 16 -10 -1 20 -6 18 -18 23 -3 -8 27 24 -20 -26 -2 28 -16 -30
right_child=2 4 3 10 5 -7 21 -9 13 -11 -12 -13 -14 -15 22 -17 17 -19 19 -21 -22 -23 -24 -25 25 -27 -28 -29 29 -31
leaf_value=-25086.183401925446 116230.54308712122 21937.121105616898 161566.82761570413 11861.729410348813 -20133.759350657914 12888.137971383807 -5903.3251706038664 -21368.118126578283 24176.984966514738 97438.07792496981 62266.346659059884 73723.486506885602 91230.473199728265 -47000.316987537204 -19224.961556202365 118306.32203124999 -25468.315165645367 -51834.724329427088 -1062.9321628883843 -39143.244066321335 76191.315943287031 27612.974180866109 -72158.656622023816 -30980.531612723218 13831.399924983678 -63617.546309267243 50012.285329499427 -35712.801380772748 -14077.765556964576 2670.6673495039058
leaf_weight=2475 33 646 79 142 424 2246 518 99 461 207 216 118 23 42 1745 20 211 60 2484 92 54 174 42 119 1488 29 270 248 1528 989
leaf_count=2475 33 646 79 142 424 2246 518 99 461 207 216 118 23 42 1745 20 211 60 2484 92 54 174 42 119 1488 29 270 248 1528 989
internal_value=0 -4605.76 46780.1 74638.8 6511.57 3181.78 -16148 26955.9 32891.4 115152 42273.5 35025.3 -1240.22 18233.8 -17986.7 28683.1 -1673.65 72.3023 776.445 2091.17 26122.4 2524.18 -14126.7 3011.94 4022.97 12350.8 57224.2 -13586.2 -12298.7 -7496.84
internal_weight=0 15733 1549 644 8014 7176 7719 905 806 286 358 838 4930 503 7027 720 4907 4483 4423 4212 700 692 4552 4120 4001 1517 303 4510 4262 2517
internal_count=17282 15733 1549 644 8014 7176 7719 905 806 286 358 838 4930 503 7027 720 4907 4483 4423 4212 700 692 4552 4120 4001 1517 303 4510 4262 2517
is_linear=0
shrinkage=0.1


Tree=25
num_leaves=31
num_cat=0
split_feature=2 269 16 0 1 288 313 1 1 26 27 286 180 10 7 0 27 40 35 2 0 120 2 2 33 313 34 44 0 25
split_gain=3.01607e+14 1.63525e+14 6.92936e+13 7.04345e+13 6.16317e+13 2.52587e+13 2.64593e+13 2.41125e+13 2.38115e+13 2.6731e+13 2.40759e+13 2.34595e+13 2.10398e+13 2.29825e+13 1.76441e+13 1.72024e+13 1.898e+13 1.71967e+13 1.75955e+13 1.69712e+13 1.59047e+13 1.57961e+13 1.56559e+13 1.53824e+13 1.2298e+13 1.20778e+13 1.1807e+13 1.17325e+13 1.15077e+13 1.21554e+13
threshold=1.1115739249327155 1.0000000180025095e-35 1.0000000180025095e-35 0.5580078094353158 -1.3927176825630669 1.0000000180025095e-35 1.0000000180025095e-35 -1.3679636643681221 0.47762503304819387 1.0000000180025095e-35 1.0000000180025095e-35 1.0000000180025095e-35 1.0000000180025095e-35 1.0000000180025095e-35 1.0000000180025095e-35 -1.075540817230862 1.0000000180025095e-35 1.0000000180025095e-35 1.0000000180025095e-35 -0.98279484661986682 -1.4022505425640979 1.0000000180025095e-35 0.3785448548893115 0.69270017062219891 1.0000000180025095e-35 1.0000000180025095e-35 1.0000000180025095e-35 1.0000000180025095e-35 1.211427260101787 1.0000000180025095e-35
decision_type=2 2 2 2 2 2 2 2 2 2 2 2 2 2 2 2 2 2 2 2 2 2 2 2 2 2 2 2 2 2
left_child=1 11 12 20 19 6 8 -5 9 10 14 15 13 -2 17 -1 28 18 22 -3 -4 -15 26 -11 27 -9 -6 -21 29 -17
right_child=2 4 3 7 5 -7 -8 25 -10 23 -12 -13 -14 21 -16 16 -18 -19 -20 24 -22 -23 -24 -25 -26 -27 -28 -29 -30 -31
leaf_value=-26411.304719815904 51201.665065477719 -7137.2312500000007 -17330.284165736608 144567.28477515242 -6423.8597264695609 -10110.84812231164 -10687.603319409518 93655.113073020766 -1356.9868729889006 56236.113058434916 23199.964980081644 -4191.0761095897933 -19746.132148538178 21759.286383308197 67683.260059814464 -20289.142292043925 4100.089464084419 52708.928752561478 41729.927902560768 28618.105585571291 42022.24272691457 -42300.285007440478 69133.711823141173 22041.432796788744 66351.137445378714 42233.945730064661 46692.60199854651 106475.6978125 5888.1990773187681 -4157.4391877529397
leaf_weight=1585 305 100 56 82 1563 1241 856 215 1695 166 758 1708 97 461 40 3164 499 61 90 600 233 42 29 634 118 58 43 20 215 548
leaf_count=1585 305 100 56 82 1563 1241 856 215 1695 166 758 1708 97 461 40 3164 499 61 90 600 233 42 29 634 118 58 43 20 215 548
internal_value=0 -4145.18 42102.1 67174.9 5860.41 2863.6 5576.54 97013.9 8317.66 13163.6 8218.27 -14533.2 24260.3 29543.2 1999.14 -17471.8 -14270.5 528.054 -1317.18 31522.8 30521.4 16410.4 -3686.75 29136.8 36761.3 82730.5 -5001.69 31129.6 -16604.8 -17907.6
internal_weight=0 15733 1549 644 8014 7176 5935 355 5079 3384 2584 7719 905 808 1826 6011 4426 1786 1725 838 289 503 1635 800 738 273 1606 620 3927 3712
internal_count=17282 15733 1549 644 8014 7176 5935 355 5079 3384 2584 7719 905 808 1826 6011 4426 1786 1725 838 289 503 1635 800 738 273 1606 620 3927 3712
is_linear=0
shrinkage=0.1


Tree=26
num_leaves=31
num_cat=0
split_feature=2 269 31 0 0 33 1 49 214 2 44 40 206 16 68 43 231 1 30 188 120 35 2 4 112 171 2 0 15 27
split_gain=2.44302e+14 1.32456e+14 5.6882e+13 5.19706e+13 4.69721e+13 2.95684e+13 2.73801e+13 2.50978e+13 2.44136e+13 2.16714e+13 2.02201e+13 2.05815e+13 1.92033e+13 2.2012e+13 1.86477e+13 1.73424e+13 1.68641e+13 1.63306e+13 1.55082e+13 1.48568e+13 1.41109e+13 1.36844e+13 1.36565e+13 1.50687e+13 1.38602e+13 1.3056e+13 1.26459e+13 1.29827e+13 1.20592e+13 1.12564e+13
threshold=1.1115739249327155 1.0000000180025095e-35 1.0000000180025095e-35 0.88471753476855142 0.23129808410208011 1.0000000180025095e-35 -1.2467915919778612 1.0000000180025095e-35 1.0000000180025095e-35 -0.98279484661986682 1.0000000180025095e-35 1.0000000180025095e-35 1.0000000180025095e-35 1.0000000180025095e-35 1.0000000180025095e-35 1.0000000180025095e-35 1.0000000180025095e-35 -0.10503526574933994 1.0000000180025095e-35 1.0000000180025095e-35 1.0000000180025095e-35 1.0000000180025095e-35 -0.98279484661986682 1.0000000180025095e-35 1.0000000180025095e-35 1.0000000180025095e-35 3.2059426964852977 0.5580078094353158 1.0000000180025095e-35 1.0000000180025095e-35
decision_type=2 2 2 2 2 2 2 2 2 2 2 2 2 2 2 2 2 2 2 2 2 2 2 2 2 2 2 2 2 2
left_child=1 9 6 7 -4 8 -2 12 10 28 11 15 13 14 16 22 21 29 20 -6 25 -3 -5 24 -24 26 27 -8 -1 -11
right_child=2 3 4 5 19 -7 18 -9 -10 17 -12 -13 -14 -15 -16 -17 -18 -19 -20 -21 -22 -23 23 -25 -26 -27 -28 -29 -30 -31
leaf_value=-50785.621415625006 60956.983812993116 -12818.94208082439 28534.215976699081 -13025.729264572432 93416.091217072972 60665.912522135419 14049.196829535591 -43898.465824926185 73345.203431414178 -3094.0015799406101 104191.65963541667 54629.255470988915 12974.784891882357 5811.3712154170234 51482.411698644304 -54748.515415396345 35196.546958979852 -12841.067768032024 -22238.318290514828 178488.40135869567 -39978.490660511365 26972.009780815973 17560.46525814501 -32684.834172399722 -27273.293865288633 -3164.4286016555061 -38317.112843750001 42947.519273227823 -18956.270769283143 27436.97084391888
leaf_weight=125 202 2178 143 212 191 150 225 127 69 1312 24 107 1087 2028 51 41 81 3656 78 23 33 90 1630 67 72 126 25 503 2493 133
leaf_count=125 202 2178 143 212 191 150 225 127 69 1312 24 107 1087 2028 51 41 81 3656 78 23 33 90 1630 67 72 126 25 503 2493 133
internal_value=0 -3730.67 37891.9 5274.37 72907.8 17694.1 27404.7 52.8705 14793.3 -13079.8 12916.8 11887.8 1064.99 -1858.67 -8339.85 9626.04 -9638.68 -9283.9 20558.7 102559 24219 -11239.9 10958.4 13832.7 15663.9 26629.2 31614.5 34016 -20476 -283.884
internal_weight=0 15733 1549 8014 357 2372 1192 5642 2222 7719 2153 2129 5515 4428 2400 2022 2349 5101 990 214 912 2268 1981 1769 1702 879 753 728 2618 1445
internal_count=17282 15733 1549 8014 357 2372 1192 5642 2222 7719 2153 2129 5515 4428 2400 2022 2349 5101 990 214 912 2268 1981 1769 1702 879 753 728 2618 1445
is_linear=0
shrinkage=0.1


Tree=27
num_leaves=31
num_cat=0
split_feature=2 269 16 1 1 33 286 288 313 26 1 44 0 30 120 1 27 25 243 245 2 26 0 5 184 40 119 131 0 1
split_gain=1.97884e+14 1.07289e+14 4.8085e+13 4.90419e+13 4.36116e+13 2.24978e+13 1.90161e+13 1.81738e+13 1.72764e+13 1.67708e+13 1.60296e+13 1.52753e+13 1.51252e+13 1.45515e+13 1.59084e+13 1.49003e+13 1.32387e+13 1.32666e+13 1.42627e+13 1.53754e+13 1.30814e+13 3.05195e+13 1.267e+13 1.23651e+13 1.21024e+13 1.20844e+13 1.19901e+13 1.20476e+13 1.17269e+13 1.13168e+13
threshold=1.1115739249327155 1.0000000180025095e-35 1.0000000180025095e-35 -0.32529625256193428 -0.93110805341820235 1.0000000180025095e-35 1.0000000180025095e-35 1.0000000180025095e-35 1.0000000180025095e-35 1.0000000180025095e-35 -1.3927176825630669 1.0000000180025095e-35 -1.7289602678973333 1.0000000180025095e-35 1.0000000180025095e-35 -1.2467915919778612 1.0000000180025095e-35 1.0000000180025095e-35 1.0000000180025095e-35 1.0000000180025095e-35 0.69270017062219891 1.0000000180025095e-35 -1.7289602678973333 1.0000000180025095e-35 1.0000000180025095e-35 1.0000000180025095e-35 1.0000000180025095e-35 1.0000000180025095e-35 0.5580078094353158 0.5011771641409809
decision_type=2 2 2 2 2 2 2 2 2 2 2 2 2 2 2 2 2 2 2 2 2 2 2 2 2 2 2 2 2 2
left_child=1 6 13 10 5 9 12 8 20 11 -4 23 -1 14 15 -2 17 18 19 -14 21 24 -5 25 28 26 27 -3 -6 -22
right_child=2 4 3 22 7 -7 -8 -9 -10 -11 -12 -13 16 -15 -16 -17 -18 -19 -20 -21 29 -23 -24 -25 -26 -27 -28 -29 -30 -31
leaf_value=-32201.471061289772 57258.933589377339 3757.519830751351 120998.18459009098 -35339.368567708334 -11449.67068468037 56348.06130301339 -2460.5670512965471 -11824.814874916694 -11511.001108632925 43027.002992021276 69421.604827448333 92402.189266304355 -24150.708110885185 -16940.938999368689 -36235.310437593005 20537.372136404854 -894.60984722908256 -2614.8119077682495 -5464.4259863251627 -8148.0349976859407 20524.904974423993 40586.519013058154 33028.942051354679 83121.496875000012 18157.73383469028 48724.477023397914 62061.789863782054 44390.570857853083 3132.6888470972367 4202.8318616720017
leaf_weight=443 134 1394 79 30 1138 140 1708 992 708 188 254 23 2434 99 42 630 777 736 824 797 831 181 281 23 267 74 39 77 1070 869
leaf_count=443 134 1394 79 30 1138 140 1708 992 708 188 254 23 2434 99 42 630 777 736 824 797 831 181 281 23 267 74 39 77 1070 869
internal_value=0 -3357.6 34102.7 54989 4746.93 17720.6 -11771.9 552.341 2976.93 14746 81657.5 11484.1 -14417.6 19240 23684.1 26978.1 -13002.7 -14966.4 -17208.3 -20203.3 5331.72 947.487 26433.9 10326 -1951.37 9268.99 7335.41 5884.47 -4383.04 12181.4
internal_weight=0 15733 1549 644 8014 1958 7719 6056 5064 1818 333 1630 6011 905 806 764 5568 4791 4055 3231 4356 2656 311 1607 2475 1584 1510 1471 2208 1700
internal_count=17282 15733 1549 644 8014 1958 7719 6056 5064 1818 333 1630 6011 905 806 764 5568 4791 4055 3231 4356 2656 311 1607 2475 1584 1510 1471 2208 1700
is_linear=0
shrinkage=0.1


Tree=28
num_leaves=31
num_cat=0
split_feature=2 2 1 31 0 16 1 15 0 43 19 0 54 243 143 0 288 15 25 6 188 22 2 0 29 313 245 180 120 2
split_gain=1.60286e+14 8.77162e+13 6.61157e+13 3.92538e+13 3.35433e+13 2.97215e+13 2.4276e+13 2.30409e+13 2.0604e+13 1.88496e+13 1.67136e+13 1.64383e+13 1.4437e+13 1.43736e+13 1.51071e+13 1.55721e+13 1.3619e+13 1.34754e+13 1.17567e+13 1.33456e+13 1.17462e+13 1.13764e+13 1.95637e+13 1.05945e+13 1.02893e+13 1.01833e+13 9.84992e+12 9.77596e+12 1.09108e+13 1.01546e+13
threshold=1.1115739249327155 -0.56392109230935039 -0.056899080294236772 1.0000000180025095e-35 1.0000000180025095e-35 1.0000000180025095e-35 -1.3927176825630669 1.0000000180025095e-35 1.211427260101787 1.0000000180025095e-35 1.0000000180025095e-35 -1.7289602678973333 1.0000000180025095e-35 1.0000000180025095e-35 1.0000000180025095e-35 1.211427260101787 1.0000000180025095e-35 1.0000000180025095e-35 1.0000000180025095e-35 1.0000000180025095e-35 1.0000000180025095e-35 1.0000000180025095e-35 0.3785448548893115 0.88471753476855142 1.0000000180025095e-35 1.0000000180025095e-35 1.0000000180025095e-35 1.0000000180025095e-35 1.0000000180025095e-35 3.2059426964852977
decision_type=2 2 2 2 2 2 2 2 2 2 2 2 2 2 2 2 2 2 2 2 2 2 2 2 2 2 2 2 2 2
left_child=1 5 6 8 -5 13 -3 11 27 10 12 -4 17 14 15 26 25 18 19 21 -6 22 -8 -19 -15 -13 -1 28 29 -2
right_child=3 2 7 4 20 -7 9 -9 -10 -11 -12 16 -14 24 -16 -17 -18 23 -20 -21 -22 -23 -24 -25 -26 -27 -28 -29 -30 -31
leaf_value=-20873.578560188325 22332.432403583316 28050.223066257895 -20207.726245456946 18021.0730859375 74816.208727384874 103102.57840909091 33952.205068997508 -30412.474984797376 47372.848525468136 -54539.314037566495 -25062.831532632874 2767.7168086967554 -7964.1355100591136 -9300.1624336401419 20394.000669118159 2619.2475542182428 -15228.990092922995 -35428.0280954072 2564.1676914209102 -20461.513457480247 150109.46385869567 -8199.1119976674909 13733.076698111734 9287.7709198533448 12340.536199873914 -11886.033217810887 -8821.2349799349613 -20778.982140066964 -35835.520458984378 -42377.460093750007
leaf_weight=3307 809 757 503 125 209 22 769 326 252 47 137 3608 376 721 113 385 604 99 637 87 23 139 1267 114 316 546 853 70 36 25
leaf_count=3307 809 757 503 125 209 22 769 326 252 47 137 3608 376 721 113 385 604 99 637 87 23 139 1267 114 316 546 853 70 36 25
internal_value=0 -3021.84 2619.36 30692.4 59780.8 -12905 11744.5 -4614.48 21980.6 8383.05 9198.87 -3015.9 10544.6 -13353.2 -15723.6 -16621.6 -1198.44 12780.9 14564.5 17944 82280.6 19480.2 21369.9 -11495.6 -2705.7 841.634 -18402.3 15173.3 18066 20392.7
internal_weight=0 15733 10016 1549 357 5717 4429 5587 1192 3672 3625 5261 3488 5695 4658 4545 4758 3112 2899 2262 232 2175 2036 213 1037 4154 4160 940 870 834
internal_count=17282 15733 10016 1549 357 5717 4429 5587 1192 3672 3625 5261 3488 5695 4658 4545 4758 3112 2899 2262 232 2175 2036 213 1037 4154 4160 940 870 834
is_linear=0
shrinkage=0.1


Tree=29
num_leaves=31
num_cat=0
split_feature=2 269 0 0 33 2 26 286 184 0 214 236 2 45 1 43 2 19 112 30 0 6 264 25 135 16 25 243 245 122
split_gain=1.3254e+14 9.04427e+13 4.14655e+13 2.86702e+13 2.10775e+13 2.02589e+13 1.86216e+13 1.52266e+13 1.48846e+13 1.4974e+13 1.48674e+13 1.41324e+13 1.40218e+13 1.38682e+13 1.29472e+13 1.29161e+13 1.25838e+13 1.25593e+13 1.23561e+13 1.19696e+13 1.08291e+13 1.07823e+13 1.09544e+13 1.10488e+13 1.23263e+13 8.76353e+12 8.92258e+12 9.83203e+12 1.13541e+13 8.67989e+12
threshold=2.577632065019523 1.0000000180025095e-35 0.88471753476855142 1.211427260101787 1.0000000180025095e-35 0.69270017062219891 1.0000000180025095e-35 1.0000000180025095e-35 1.0000000180025095e-35 -0.42212136656439109 1.0000000180025095e-35 1.0000000180025095e-35 3.2059426964852977 1.0000000180025095e-35 0.01503204172883668 1.0000000180025095e-35 -0.56392109230935039 1.0000000180025095e-35 1.0000000180025095e-35 1.0000000180025095e-35 -1.7289602678973333 1.0000000180025095e-35 1.0000000180025095e-35 1.0000000180025095e-35 1.0000000180025095e-35 1.0000000180025095e-35 1.0000000180025095e-35 1.0000000180025095e-35 1.0000000180025095e-35 1.0000000180025095e-35
decision_type=2 2 2 2 2 2 2 2 2 2 2 2 2 2 2 2 2 2 2 2 2 2 2 2 2 2 2 2 2 2
left_child=1 7 5 12 10 6 8 20 9 -3 13 -7 14 15 -2 16 -4 18 19 21 -1 22 23 24 29 26 27 28 -22 -18
right_child=3 2 4 -5 -6 11 -8 -9 -10 -11 -12 -13 -14 -15 -16 -17 17 -19 -20 -21 25 -23 -24 -25 -26 -27 -28 -29 -30 -31
leaf_value=-27015.162868685336 51940.906823897691 -23425.876019435531 -5721.4520705228479 89780.275556724097 50282.473547212576 8181.4465405971241 30794.406246883314 -1294.1990170896297 9575.2897849763049 -5326.4724920146164 58919.42643087636 -28218.806380648224 -38139.713734375 62017.000737847229 18560.723308978304 -44869.696820217228 27594.724898286539 -27945.865087890626 -24632.623779975045 -20590.29743868671 -20437.167437810924 -34310.524472128382 -26939.576924641926 837.76140864031959 -16281.896363336267 -1599.1033833286831 -2387.3454640927521 -4655.0469930139561 -6619.0549467309356 -20205.060516826925
leaf_weight=444 292 586 354 117 162 2729 141 1711 495 2078 69 111 25 54 193 41 1466 67 72 79 2342 37 48 227 71 875 736 824 797 39
leaf_count=444 292 586 354 117 162 2729 141 1711 495 2078 69 111 25 54 193 41 1466 67 72 79 2342 37 48 227 71 875 736 824 797 39
internal_value=0 -1699.18 5158.04 45135.2 15276.4 566.887 -4761.88 -9618.37 -6348.91 -9307.8 13115.2 6758.76 34893.1 11878.2 38657.7 10795.6 11723.4 14655.7 16055.5 17544.9 -11985 19140.6 20209 21464.2 24435.2 -10787.8 -12498.8 -14376.7 -16928.7 26356.1
internal_weight=0 16655 8926 627 2786 6140 3300 7729 3159 2664 2624 2840 510 2555 485 2501 2460 2106 2039 1967 6018 1888 1851 1803 1576 5574 4699 3963 3139 1505
internal_count=17282 16655 8926 627 2786 6140 3300 7729 3159 2664 2624 2840 510 2555 485 2501 2460 2106 2039 1967 6018 1888 1851 1803 1576 5574 4699 3963 3139 1505
is_linear=0
shrinkage=0.1


Tree=30
num_leaves=31
num_cat=0
split_feature=2 269 1 1 2 33 182 0 288 313 19 43 288 44 286 60 0 2 26 184 183 243 11 236 188 214 29 29 29 316
split_gain=1.07358e+14 7.32586e+13 3.5929e+13 2.42821e+13 1.83072e+13 1.47415e+13 1.32282e+13 1.39163e+13 1.31624e+13 1.6314e+13 1.28234e+13 1.27862e+13 1.13256e+13 1.02706e+13 1.07697e+13 9.82589e+12 9.3333e+12 9.30703e+12 1.73275e+13 9.34153e+12 8.97016e+12 9.60515e+12 8.64644e+12 7.62947e+12 7.50656e+12 7.42241e+12 6.93837e+12 6.84347e+12 6.7938e+12 6.84161e+12
threshold=2.577632065019523 1.0000000180025095e-35 -0.39722737458500773 -1.004156080627119 -0.56392109230935039 1.0000000180025095e-35 1.0000000180025095e-35 0.88471753476855142 1.0000000180025095e-35 1.0000000180025095e-35 1.0000000180025095e-35 1.0000000180025095e-35 1.0000000180025095e-35 1.0000000180025095e-35 1.0000000180025095e-35 1.0000000180025095e-35 -0.42212136656439109 0.69270017062219891 1.0000000180025095e-35 1.0000000180025095e-35 1.0000000180025095e-35 1.0000000180025095e-35 1.0000000180025095e-35 1.0000000180025095e-35 1.0000000180025095e-35 1.0000000180025095e-35 1.0000000180025095e-35 1.0000000180025095e-35 1.0000000180025095e-35 1.0000000180025095e-35
decision_type=2 2 2 2 2 2 2 2 2 2 2 2 2 2 2 2 2 2 2 2 2 2 2 2 2 2 2 2 2 2
left_child=1 6 4 24 28 10 7 15 9 -5 11 13 17 14 22 20 -8 18 19 -4 21 -1 25 -19 -2 -6 -23 -9 29 -3
right_child=3 2 12 8 5 -7 16 27 -10 -11 -12 -13 -14 -15 -16 -17 -18 23 -20 -21 -22 26 -24 -25 -26 -27 -28 -29 -30 -31
leaf_value=-15451.517334970387 63937.884057770745 -14593.350405120851 -9239.9889985550708 51086.566955862938 8338.859021760436 43672.500445556645 -2194.8752257358151 -564.77101810497049 -3463.5145957797185 2688.81944466817 -21787.717639741444 -41125.804627046135 -12739.167318968721 79578.359952799481 22502.491147296892 -1007.8406866358961 24574.066809345113 7183.42850633543 29841.976963822162 9351.8267399365704 33457.126516053737 -10099.681047164233 47239.092110655736 -22790.558034078193 126261.12173295455 54758.833537946433 8448.7285444565605 34692.313996706172 29409.089670360336 19897.922495918843
leaf_weight=4412 159 406 1655 247 2175 160 518 823 102 97 105 42 728 24 1012 762 174 1852 143 323 41 647 61 89 22 35 293 59 49 67
leaf_count=4412 159 406 1655 247 2175 160 518 823 102 97 105 42 728 24 1012 762 174 1852 143 323 41 647 61 89 22 35 293 59 49 67
internal_value=0 -1529.26 4642.23 40621.7 11469.9 13998.4 -8656.54 -9953.86 28085 37439.5 12623.8 13702.7 -1253.22 14399 13922.5 -11637.3 4536.04 805.32 -3773.76 -6204.02 -13139.1 -13496.1 10099.1 5809.04 71513.1 9074.02 -4318.1 1793.7 -6035.81 -9707.69
internal_weight=0 16655 8926 627 4136 3614 7729 7037 446 344 3454 3349 4790 3307 3283 6155 692 4062 2121 1978 5393 5352 2271 1941 181 2210 940 882 522 473
internal_count=17282 16655 8926 627 4136 3614 7729 7037 446 344 3454 3349 4790 3307 3283 6155 692 4062 2121 1978 5393 5352 2271 1941 181 2210 940 882 522 473
is_linear=0
shrinkage=0.1


Tree=31
num_leaves=31
num_cat=0
split_feature=2 0 15 2 0 286 1 2 1 2 43 4 288 288 313 0 129 313 30 188 1 2 2 29 26 8 171 0 256 4
split_gain=8.69596e+13 6.07649e+13 4.03639e+13 2.27171e+13 2.05135e+13 1.904e+13 1.45766e+13 1.20589e+13 1.35494e+13 1.04997e+13 1.03881e+13 9.4703e+12 1.00903e+13 8.86208e+12 1.35095e+13 8.59215e+12 7.71027e+12 7.64971e+12 7.61305e+12 7.49838e+12 7.48151e+12 7.5439e+12 6.74752e+12 6.64657e+12 6.56211e+12 6.49371e+12 6.84741e+12 6.06586e+12 5.98458e+12 6.90708e+12
threshold=2.577632065019523 0.88471753476855142 1.0000000180025095e-35 -0.98279484661986682 0.88471753476855142 1.0000000180025095e-35 -1.3927176825630669 -0.98279484661986682 0.42857832706115306 -0.56392109230935039 1.0000000180025095e-35 1.0000000180025095e-35 1.0000000180025095e-35 1.0000000180025095e-35 1.0000000180025095e-35 -1.075540817230862 1.0000000180025095e-35 1.0000000180025095e-35 1.0000000180025095e-35 1.0000000180025095e-35 1.0121127255693472 -0.56392109230935039 0.69270017062219891 1.0000000180025095e-35 1.0000000180025095e-35 1.0000000180025095e-35 1.0000000180025095e-35 0.5580078094353158 1.0000000180025095e-35 1.0000000180025095e-35
decision_type=2 2 2 2 2 2 2 2 2 2 2 2 2 2 2 2 2 2 2 2 2 2 2 2 2 2 2 2 2 2
left_child=1 2 5 -3 13 7 -5 -1 11 15 18 12 17 14 -2 -4 -10 -9 22 -6 21 -7 24 -17 28 26 -24 -25 29 -8
right_child=4 3 9 6 19 20 10 8 16 -11 -12 -13 -14 -15 -16 23 -18 -19 -20 -21 -22 -23 25 27 -26 -27 -28 -29 -30 -31
leaf_value=-42320.312420886075 45069.510611739817 -6418.6340339731896 -18627.245513379443 24836.725496762221 53773.644558990934 -25358.150077451512 7475.2727362147607 10194.677208268808 -9445.6688742250353 -27078.084034826865 -40500.079992378051 -24095.138614849453 -6589.0461856488491 -4401.3183378179019 -1622.6601968486657 -10666.122383288892 13317.389603163319 -3432.0272780480846 -23096.057234700522 113821.22652004077 -2569.1036813186597 11285.042453855178 29718.807028697323 -4855.8325868194252 31061.922980253574 -23362.323925781253 -14840.440454101563 15779.199011964227 35746.16119767374 -16088.355691484092
leaf_weight=79 204 686 1001 850 217 58 1262 1521 2556 421 41 137 820 94 89 2433 158 565 66 23 618 1794 373 643 118 29 38 183 67 138
leaf_count=79 204 686 1001 850 217 58 1262 1521 2556 421 41 137 820 94 89 2433 158 565 66 23 618 1794 373 643 118 29 38 183 67 138
internal_value=0 -1376.33 -4586.4 9989.3 36559.5 -401.209 13763.9 -3515.99 -2983.5 -12012.6 9349.31 1598.08 2809.36 22315.3 30886.6 -10523.8 -8120.48 6503.84 10326.7 59528.2 6958.25 10137.5 11416.1 -8034.79 8374.7 22372 25599 -284.149 6549.83 5152.57
internal_weight=0 16655 12987 3668 627 8306 2982 5836 5757 4681 2132 3043 2906 387 293 4260 2714 2086 2091 240 2470 1852 2025 3259 1585 440 411 826 1467 1400
internal_count=17282 16655 12987 3668 627 8306 2982 5836 5757 4681 2132 3043 2906 387 293 4260 2714 2086 2091 240 2470 1852 2025 3259 1585 440 411 826 1467 1400
is_linear=0
shrinkage=0.1


Tree=32
num_leaves=31
num_cat=0
split_feature=2 2 1 1 16 53 288 16 0 313 313 288 19 288 313 0 16 243 143 129 25 2 54 22 15 6 2 14 1 29
split_gain=7.09943e+13 3.85952e+13 3.51328e+13 2.3445e+13 2.26295e+13 2.09791e+13 1.5419e+13 1.17095e+13 1.43278e+13 1.08057e+13 1.04549e+13 1.38389e+13 1.00745e+13 9.74026e+12 9.69354e+12 9.22831e+12 8.80141e+12 8.52371e+12 9.53092e+12 7.64156e+12 7.55337e+12 8.73308e+12 8.64377e+12 9.7199e+12 9.6791e+12 8.09404e+12 9.16135e+12 1.02383e+13 7.11031e+12 5.94173e+12
threshold=1.1115739249327155 -0.56392109230935039 0.30866884314184567 -1.3205923161598465 1.0000000180025095e-35 1.0000000180025095e-35 1.0000000180025095e-35 1.0000000180025095e-35 -1.4022505425640979 1.0000000180025095e-35 1.0000000180025095e-35 1.0000000180025095e-35 1.0000000180025095e-35 1.0000000180025095e-35 1.0000000180025095e-35 1.211427260101787 1.0000000180025095e-35 1.0000000180025095e-35 1.0000000180025095e-35 1.0000000180025095e-35 1.0000000180025095e-35 0.26335457245391952 1.0000000180025095e-35 1.0000000180025095e-35 1.0000000180025095e-35 1.0000000180025095e-35 0.3785448548893115 1.0000000180025095e-35 1.0363204314451291 1.0000000180025095e-35
